-0.412844
2.748323
-0.939081
3.023908
2.457774
-1.347089
-0.575072
-0.445949
-1.628996
-0.181253
0.407278
-0.190806
1.959690
0.912963
2.272285
1.169109
0.604207
-1.194960
-2.088419
0.603144
1.218798
-0.685788
-0.602615
1.026848
0.493013
3.315900
-1.797292
-3.365973
0.811384
-0.513076
0.665883
1.235664
-0.218753
-1.608472
0.250434
3.421280
-1.103002
0.339750
-2.637115
-4.066733
2.194361
-0.096365
0.277486
-0.392686
2.249898
-0.238585
-0.222516
-0.829671
1.533552
2.292165
2.024198
0.207357
-1.625345
-0.225240
1.451094
0.145784
-0.379950
-1.060450
-0.316324
1.292620
2.310814
0.589276
1.249151
1.330148
-1.367148
-1.806468
-0.759379
-2.880614
2.135681
2.431116
-2.541401
0.939017
0.085238
0.741985
-2.094011
-0.138262
2.319260
2.962394
0.581332
2.149369
2.602078
-2.745364
-0.249509
-1.525081
3.222436
1.251310
0.539008
0.526387
-0.344011
-2.007529
1.832542
-0.182364
1.864672
1.254727
0.365649
0.120949
-0.985468
0.352153
-0.059484
1.864565
-0.125672
-2.835482
-1.677207
0.503671
-1.148791
2.530617
-0.656374
-0.894036
1.132134
-0.564401
-0.995555
-1.587477
3.322260
-1.656277
0.126802
0.319310
-1.744696
-0.301218
-3.399660
-0.592893
-2.242498
-0.672500
0.583518
-1.199746
2.521278
0.099866
2.030038
2.713313
1.009876
1.316559
0.644385
-2.889427
-2.779639
-2.501748
-0.279985
-2.837206
-0.911363
1.306613
-0.944396
-0.969025
1.059927
1.479714
0.227890
2.351138
1.059706
0.170100
1.128470
0.499233
-0.081580
0.693059
2.193496
-5.149031
2.112430
-0.243518
-0.439696
3.413119
-1.791333
1.300005
2.637572
0.136520
-1.174393
-1.320089
-1.040906
0.675539
-1.675191
-0.748042
-0.322540
2.284546
1.355604
-5.424257
-0.104661
-4.590222
0.764751
-0.968127
1.602673
-0.950222
0.335156
-0.533991
0.763315
4.951436
-0.334010
3.446827
2.552098
1.013169
0.501350
-3.360561
-0.878593
0.944934
3.389609
1.726918
1.409839
-2.709728
-0.013325
1.892288
0.171131
1.442183
-1.312429
4.122181
-2.502242
-1.451470
1.776671
-1.320482
-0.640913
0.953394
4.146785
-0.750848
0.751197
-0.479244
2.634956
2.858424
-3.435966
2.615284
1.411910
-1.301668
-4.394350
-0.940552
-0.383614
-0.834679
0.113820
-1.784349
-2.813440
-1.268059
0.501133
0.887903
1.609809
0.036348
-0.519820
-2.128052
-1.746952
1.537366
-0.094599
-2.279116
0.640221
-1.292322
-1.937339
-3.213128
1.161217
-1.604002
-3.812081
3.283161
1.867966
-2.936370
-2.090094
0.506336
2.565925
-1.235411
-0.209095
-1.668210
-1.612040
-3.302986
0.771001
2.099422
-0.843560
-0.285118
2.620725
2.195830
0.179759
4.333704
1.292004
2.899791
-2.571303
2.024701
3.498204
-0.997769
-0.832003
-1.347606
0.305005
5.075875
0.324549
1.567885
0.134098
1.576343
0.972851
-2.460599
-0.266962
1.320564
-2.403461
-0.309022
-0.325058
-1.003996
-0.474920
0.227329
-3.937860
-2.366095
0.571612
0.675324
-0.358440
2.264125
-3.121280
1.011894
-1.615122
3.949268
1.035506
-0.385127
0.600310
-2.014238
-0.531024
0.627352
3.470619
1.267948
1.186952
0.401910
6.557933
-1.436881
-0.342543
-0.185503
-3.028103
-2.403169
0.724067
-0.006249
0.014064
-2.087558
-0.515486
1.346631
-3.545553
-0.923000
1.003268
-1.913722
-3.161257
-2.972796
-0.124580
-0.660018
0.875725
-1.787387
-1.549413
1.114960
-0.527665
2.213737
-2.595286
-1.896335
1.539943
1.516212
-0.348820
-3.691824
1.395452
0.036441
0.500941
1.616707
-1.790667
-0.257085
-2.608136
2.718538
0.886538
1.077808
2.067826
3.740622
-4.344136
-4.527940
-1.328463
1.401716
0.918104
-0.407013
-2.351495
-1.430446
-1.644851
-1.873588
0.150946
1.824567
-1.620372
-2.744181
-0.736220
-4.382194
3.170509
2.994075
2.347221
-1.108395
2.362000
-0.442976
2.057383
-2.283652
3.123095
-0.175044
3.991457
2.239569
1.736974
1.277590
2.831076
1.709880
0.848661
-3.122687
2.779873
-0.118030
-3.960732
1.764268
-3.442896
-0.305918
1.617748
-2.320728
0.184141
0.371908
6.975441
-0.260006
-3.371514
0.031496
4.262982
4.615417
0.838438
-0.187386
3.090404
-0.519025
-0.761077
1.588999
1.920783
-1.745659
-4.974144
1.542733
-0.611743
-0.815642
-0.684786
0.038675
-1.371028
2.928644
0.641531
-4.904811
-0.246918
-0.302558
-1.739909
-1.727677
-2.388952
-4.400341
0.977561
-1.114687
2.747449
1.656350
-2.137770
-3.798592
-3.310985
-1.192395
1.397208
-0.669884
3.060898
0.141302
2.420112
-1.532641
-1.918604
1.302287
-2.026049
-3.112967
-2.408282
0.976531
-0.319314
1.218340
-3.795456
0.548364
0.011562
-1.684000
-1.521802
0.798203
0.657951
0.411523
0.252842
-1.335554
-3.662685
0.443848
1.678108
3.919594
-1.781061
1.460625
-1.467334
-1.535069
-2.472750
0.011712
-2.639486
0.676952
-0.750122
0.394569
2.607350
-0.391346
-1.291996
-1.512758
0.190405
-2.409899
-0.639411
2.134207
4.385872
-0.615914
1.637703
-1.955219
-1.556356
0.532863
-0.094455
-0.752054
-0.904283
6.259648
-1.171290
-1.138502
2.960848
-1.642250
-1.501022
-3.440414
0.802970
3.058237
-0.918148
-1.275111
1.956064
0.475861
0.190305
0.890478
2.194050
-2.454607
1.000215
0.320526
-0.573192
-2.823026
-1.176897
-0.078996
-2.092908
-1.204522
-1.509800
1.774766
-2.439722
0.140621
2.496589
-0.558195
-0.992799
-2.188120
-1.974697
0.605762
2.309880
2.218916
1.039061
-1.428882
2.177411
0.009920
-0.288752
-1.716831
-0.843295
2.385069
-1.159549
-0.222465
0.765026
-0.931737
0.266609
0.773011
-0.617729
0.161297
2.344292
0.218802
1.063604
4.085858
0.440386
0.477797
-2.154099
0.700791
0.334426
-1.661162
2.035408
3.359105
-0.563480
-1.457554
1.344526
2.227416
-2.156968
0.101092
0.407247
2.997999
-0.849840
0.240757
-1.437176
-0.396992
-3.080889
0.177701
-1.212554
0.199977
-0.378126
-2.321007
-0.570733
1.343582
-1.210779
-0.578417
2.209587
0.189368
-1.000820
1.259555
-0.259375
1.906679
-1.508109
0.873280
-0.912277
1.606121
-1.878715
-0.562484
2.700753
-0.217614
-0.150808
1.317077
2.768179
-0.021960
-0.695431
1.129293
-2.268197
0.310300
1.612575
0.671689
-0.803622
-0.527507
-2.167847
-0.424746
-0.469247
-0.941417
0.227766
1.152070
-1.812793
1.042041
0.624240
-0.232942
0.106751
0.136093
0.385219
0.614929
-1.874908
-0.554697
-3.545368
-1.045343
1.071995
0.981130
-0.225183
-0.335358
-2.737564
-1.691448
1.462377
-0.397051
-0.073319
1.510712
1.615770
-0.973386
-0.437179
0.702925
0.135758
-0.584734
0.727514
-1.802191
0.448186
-1.678607
-2.428192
0.764937
2.271253
-2.104466
0.494092
0.044305
-1.105305
0.821581
-1.008812
-1.604891
-1.304941
-2.706201
2.448122
-0.950172
0.852036
-1.100680
-1.319012
-0.056832
-2.096004
-0.307122
-0.576551
-0.399600
0.801094
-1.081558
-0.460782
0.757217
-1.591308
0.009386
0.507941
0.282393
-1.016375
-0.566928
-0.351003
0.811578
-2.430600
1.748854
-0.417060
1.015066
-0.273050
0.060877
-0.878048
0.243422
2.166509
-1.213839
-0.685419
1.064889
0.573148
-1.441966
0.116901
0.324200
-0.340031
-1.898372
1.452317
-0.496742
-0.843421
1.247308
-1.603846
-1.651570
2.148695
0.954215
-0.177721
-1.253599
0.434475
-0.514321
-1.253187
-1.000075
-0.659051
-2.483949
1.119624
1.067957
1.388322
-0.800453
3.611886
3.842185
-0.373842
-1.310015
3.195158
-0.772040
1.805585
2.884635
0.987153
4.994398
3.546898
-1.900377
2.955306
3.502550
0.803715
2.177026
-3.378818
-3.303581
-0.262581
-0.085147
3.280902
1.717127
3.000031
0.163835
-3.130097
1.797717
0.986651
2.610190
1.975761
-1.767938
0.611679
0.726617
6.467336
-1.196579
0.058259
-1.350543
2.023364
1.091359
-2.151704
-0.307553
0.743672
-0.224744
1.181927
-1.179174
-4.490253
-0.767762
3.726068
1.887788
0.141588
-4.184330
1.578106
-3.487658
1.053761
-0.168756
0.626759
1.758220
0.966589
-0.589522
-1.622261
0.434274
-3.443803
-2.461982
-0.224232
0.617199
-1.120483
-1.756457
-3.538943
-0.284687
0.866996
-3.742707
-1.061371
-0.935454
-0.546618
0.730995
-0.745423
4.051315
2.235293
-0.292103
1.200093
-3.158191
-3.914478
-1.076252
2.526499
-0.811944
1.217400
0.090568
1.169453
-0.009139
-2.205182
-0.314837
-0.764265
-0.780176
-2.239906
1.980762
-0.769518
-0.970057
2.367647
0.111309
-0.931268
0.293377
1.821118
1.129663
0.632753
-1.549768
-0.320379
-0.862699
0.239969
-2.613838
-1.277246
-2.003959
2.358673
-0.401332
-1.305857
-2.132837
-0.344978
-2.650956
-1.418391
0.831307
0.009491
0.848913
-1.962286
-3.367249
-0.960341
1.770374
-0.910391
-0.949924
-0.033349
1.941843
-2.467651
3.358080
0.881485
0.849328
1.126191
-4.665303
-0.549420
-1.127295
-1.215975
0.786740
-0.988839
0.085952
-2.871696
-2.275742
0.988690
2.670202
-1.836919
-1.860489
0.117117
-0.925040
-0.970544
0.580979
-1.715161
-2.699835
0.634243
1.175172
0.023566
0.737871
1.375862
0.033846
1.539086
-0.133572
1.396932
-0.976704
-2.156776
-0.046786
-2.055148
0.228985
-0.668169
-2.401228
1.437167
-1.268203
1.252760
0.031972
0.049203
-1.390280
0.203122
1.850054
-0.824530
2.172657
1.181262
1.801448
-1.071676
0.481748
-3.734716
-0.942796
1.715165
1.470038
-1.380681
-3.714568
1.940678
0.194960
-0.858794
-0.750693
1.246712
3.060489
-1.925156
-2.398119
-1.357570
-0.537792
1.217254
0.164767
-1.596168
0.972836
1.352432
-2.725543
-0.776260
0.542122
-0.908474
3.078233
0.786159
-2.163685
0.136132
1.939995
4.379188
1.694959
0.380069
1.326559
-1.446046
-2.212657
-1.830515
-1.273863
-0.952879
0.468970
-0.901656
-3.294266
-1.932209
0.613998
0.810057
3.672406
0.114526
-1.321426
-0.754932
0.732589
3.700294
2.194069
-0.415252
-0.571579
0.041046
1.522619
-1.804118
0.276295
1.032378
2.265218
-0.640389
-1.523320
-2.665848
1.399907
0.326347
2.620702
0.218219
-4.255885
2.238048
1.893294
-2.257362
-2.794609
1.617306
1.272745
2.682969
-0.976243
1.389373
1.781129
0.977500
1.250124
-1.966315
0.869339
0.299378
2.371636
-1.418250
-0.853486
1.097840
-0.279423
-0.913166
-0.059397
-1.513212
-1.660014
-2.037327
-0.191359
-2.086157
-2.767615
0.330346
-2.152196
0.009063
-0.505982
-0.684244
0.719184
-0.563609
2.092369
-0.186319
-2.442726
-1.330924
-0.444537
0.551676
-1.875107
-0.450068
-0.517487
-2.079559
-3.123307
-2.134582
-0.641925
2.485871
-0.091313
-0.769481
1.280822
-0.686752
-2.212973
0.836778
-1.024584
2.921223
1.096532
-1.318626
-3.491619
1.072123
-2.952590
1.991600
-0.457856
1.071675
2.940066
-1.381814
-0.913920
-0.781692
0.202979
0.852071
-1.040640
-4.612009
-1.602078
-3.131326
-0.237769
-1.261412
0.576647
2.656138
-1.695090
-5.105471
-1.539908
1.371727
0.846603
0.496567
2.536979
-0.937071
1.774475
0.057583
-3.615236
3.433854
1.160646
0.352823
-1.398704
-0.637048
-1.100578
0.444807
0.153385
1.469321
0.060882
0.161810
-1.223542
-2.082228
-2.895818
-0.565607
4.479506
1.267206
-2.369038
-1.906240
-0.395465
0.684572
2.287476
-0.070801
-0.758689
-0.457723
-0.697124
2.323769
-2.064959
-1.504455
-2.428135
1.710347
0.734587
-1.354116
3.847218
1.939336
-3.441228
-3.940590
-3.119960
1.796685
-6.264241
3.009043
1.351790
4.138581
1.253625
-0.794420
-0.444739
2.425090
-0.688186
-2.220338
0.930893
-1.202746
0.541120
-1.416402
-1.715153
2.463272
0.179364
0.202521
-1.286028
-0.516646
-0.411549
0.666417
0.063005
-1.852426
-3.386261
-1.664223
0.233413
-0.394607
-0.833338
-1.989517
-1.469034
-0.061751
-1.142578
-1.732667
-0.994733
3.711474
0.187447
-2.883796
1.337442
-2.741794
-1.410362
-1.556617
-2.281646
-4.329624
-1.102759
0.506735
4.856142
2.084906
1.508513
-0.200780
1.465917
-4.643002
-2.014994
3.659955
-3.722173
-2.816779
0.419761
-1.440763
-2.015852
-0.621896
-1.864392
0.530420
1.880052
1.960127
2.292203
-2.849529
1.043056
-1.158576
0.363715
-0.453599
0.792948
0.141369
-2.044928
-0.548453
-1.788156
1.560854
0.341603
-0.018381
1.715631
0.195041
1.542171
1.770577
-1.581521
-2.895545
0.605607
-0.408579
0.335051
-0.052027
0.846238
1.765663
-0.468361
-0.283072
-2.498204
-2.985704
3.230885
1.241711
-4.258992
-2.064093
2.044020
1.157022
-1.530104
2.708949
-3.070265
-0.771390
-3.353998
2.693114
2.161288
2.929996
0.100190
-1.583197
-1.614179
-0.987753
-1.121073
-1.589623
-1.372652
0.813032
1.204175
2.248404
0.055569
4.626457
-1.576774
-0.090349
-0.027304
-3.555892
-4.183048
2.819743
-0.442791
-2.510258
0.201560
0.119674
-1.157900
0.964622
-1.170382
-1.418887
0.515320
3.515205
0.292885
-0.412008
1.645327
-0.238328
2.212985
-0.764574
-0.333534
-2.999912
-0.731410
1.561314
3.459787
-1.361829
0.819838
-1.988928
0.635708
-2.667104
1.269725
-0.170423
0.033260
-1.758507
-1.064358
1.478669
-2.020714
-3.269344
-0.024755
-1.540185
0.902266
-0.503337
4.666038
-0.076174
-0.826168
-1.210349
2.041678
3.625921
0.084321
-0.137507
-2.882661
-0.574871
-1.575495
2.235003
-0.770528
-0.614396
2.158770
-1.467307
2.733675
0.938775
-4.437358
0.072446
2.306275
-0.696594
0.790879
0.598995
-0.351718
1.401602
-1.739122
3.303140
1.772506
-1.484538
0.414829
1.093280
-4.792106
-0.695993
-0.093845
0.723903
-0.150129
0.363439
-1.858184
-1.004014
0.813428
0.261459
-1.442199
2.599439
-0.169877
-0.173393
-2.193285
0.211036
-1.051943
-1.420001
1.476879
-1.468451
-0.415590
2.452027
0.179965
0.789247
-1.197525
0.992364
-0.450810
1.094731
-2.185550
-0.459479
-0.262337
0.449660
-0.671185
-0.660828
-1.576997
-0.417734
-0.619406
-0.823118
0.263653
-0.285937
0.309651
2.114798
-1.389633
0.835137
0.286485
-1.655522
-0.385695
0.277439
-0.005154
1.147255
-0.079341
-0.093169
1.832156
-0.548138
-0.971472
-0.188090
-0.942446
1.330377
-1.395713
-0.023785
-0.223574
-0.468355
-0.969534
0.451936
0.049972
0.172669
0.407369
-0.757582
-0.351601
0.990193
1.015652
1.103765
-1.871880
0.817183
-0.172049
0.025099
0.740817
1.441573
0.286242
-0.126741
-1.085249
0.150830
-0.353294
-2.728758
0.458325
0.437956
-0.102025
-1.022795
1.296339
-0.337742
-0.301558
-2.226425
0.455810
-0.350452
0.429471
0.071171
0.424693
1.459101
-1.330634
0.737640
1.274472
1.088148
-2.570979
1.461654
-0.559141
-1.875371
-2.192170
-0.342543
0.087062
-0.243592
-0.815196
-0.122602
-2.540719
-0.338499
-0.362491
0.498444
0.724977
0.191005
0.903301
-1.631975
-0.366598
1.731639
-3.139397
-1.678380
-1.194141
1.681404
-0.148844
0.937495
-0.261539
0.124763
0.370349
2.277574
0.230225
-2.324781
0.043728
-0.577319
-2.188327
0.578821
-0.444101
-0.471503
-2.045669
-0.703724
-2.609498
-1.410814
0.599785
-2.750909
-2.983946
0.339937
1.395315
1.836152
-0.353752
3.548463
1.346704
1.282414
1.132916
0.169891
-1.586780
1.172950
2.033067
-1.425609
-0.499537
-1.537750
1.247684
2.800636
0.882287
-0.611211
0.954836
-0.067829
-0.041993
-0.872889
1.341741
-0.802993
0.317430
3.198851
-0.153049
-0.027937
1.317035
-3.733109
-1.539445
-0.715201
0.449034
0.488141
-1.803332
0.260068
1.595554
0.758571
-1.078566
-1.231442
-0.030035
-1.345738
1.031337
-0.873074
2.224012
0.520983
1.150457
1.476431
1.490774
1.562169
-4.423971
-0.908477
1.946570
-4.458303
0.936524
-2.122140
-0.412812
-0.387988
-1.802975
-0.716447
-0.945931
-0.792428
2.407633
-1.672759
-2.272568
-0.654395
0.894595
0.388478
-1.173122
2.985990
-0.985466
-1.475654
-1.730193
-4.187481
-1.818020
-3.168284
1.567856
-0.471398
-0.255179
0.048953
0.657315
-1.875849
-0.626750
2.015934
-2.496440
2.591758
-2.058838
-1.679961
2.233797
2.481369
-0.474929
-1.123072
-0.287691
1.655589
-0.297622
-1.963027
-1.880678
-1.185331
1.038094
-0.291552
-1.740386
3.355166
1.577982
-2.169610
-0.185791
3.022736
0.111231
-1.438447
0.146180
-0.650869
-1.192338
-0.329279
-0.574088
-0.691521
1.512751
1.589199
-0.076434
1.355171
3.327114
1.773096
-0.712446
-0.899904
-0.531871
2.272299
0.114988
-2.301029
-0.071028
-2.238944
1.142127
-0.954711
-2.362252
-1.616869
0.461861
-0.600159
0.350687
0.262165
-2.407214
0.072503
1.284962
-0.936109
-4.038019
-0.913108
-1.912426
-1.385130
-0.117052
-0.824504
-0.717116
1.805456
0.067376
-0.286938
-0.815360
-0.439267
0.070709
0.963683
2.084223
0.927076
-3.013699
1.412472
0.046101
1.972578
0.113808
-0.068505
-0.098807
0.248828
1.835552
-1.000883
1.173137
1.282709
-0.391127
-2.183920
-3.374331
-0.370657
0.817420
-3.833102
1.330028
-0.452560
-0.289390
-2.593587
-0.628380
-3.869739
-1.807208
3.244428
-2.560012
-0.387825
0.322505
2.005815
-0.126550
0.125500
-0.148025
0.050430
3.005185
2.472545
-2.786157
0.876148
-1.865178
3.098310
3.587951
1.388125
2.122204
4.032337
-2.709569
2.085471
3.416671
-3.948658
1.028740
0.970346
0.558150
3.064132
3.138625
-1.835576
0.055818
2.421296
0.328032
3.036061
-2.886607
0.102864
4.535295
1.374813
-2.233388
-1.648477
4.465945
1.383774
-2.033066
2.025308
-0.563357
1.605588
-0.073790
-2.187098
-2.012030
-0.232891
1.465085
-4.147954
-0.736002
-1.654737
-0.350293
-0.503134
-0.003450
-3.952768
-1.921355
3.007505
1.512768
-0.637900
-0.760128
-0.489515
-1.855928
-2.948875
-2.271126
4.598352
5.395899
-0.909847
1.680522
0.156467
-0.606855
1.943678
0.034989
0.819803
-0.532354
-0.747897
0.455637
1.153797
0.944649
-1.552975
-3.144117
0.358289
3.573020
0.462837
-1.375024
-3.835764
2.424555
-2.879321
2.333085
2.634321
1.203867
1.091638
-1.303877
-2.018748
-0.751979
-1.030198
-1.653295
-1.066750
-1.658106
-0.321707
1.557858
1.260943
-5.077798
-1.876220
0.944853
1.223852
-1.896277
-2.591151
-4.098605
1.496372
-3.153347
2.749963
3.361805
1.603624
-2.294988
0.261946
-0.589877
2.600429
1.120748
1.032383
0.667651
0.038043
1.135244
-3.063300
-1.410019
-2.411655
-1.865188
0.425898
-2.344361
-0.335557
0.498464
-0.512729
-0.811573
-0.230232
-1.007969
-0.374385
0.688874
-1.746324
0.843469
-0.964363
-0.172452
0.436281
-0.384588
3.071828
2.857045
-1.517647
0.440051
1.184192
1.045142
-3.784772
-0.741968
-2.013760
2.271196
-2.076243
2.559964
-0.132844
-0.014564
0.622864
-1.019668
1.332701
-2.318323
-0.530205
-2.553423
1.437333
-0.665001
-0.274302
-0.944122
-1.328827
0.761581
1.091762
-4.756422
2.129187
4.223156
0.344883
-0.981866
0.499405
-1.120818
-2.778622
0.616322
0.788776
-0.041389
0.620069
0.634265
0.856221
-1.924963
-3.148455
0.594266
-0.978915
-0.517022
-1.793147
0.595298
0.081288
-0.990797
1.650057
2.632786
-0.764720
2.571826
0.972622
1.879425
1.586238
-1.540404
-2.318173
2.498497
2.461899
-0.206430
-0.214834
3.021964
-0.915839
0.461124
0.318733
4.938213
-0.251850
-1.138625
-0.023647
1.874272
3.285593
3.700547
-0.225381
-0.283416
-0.907002
-1.130144
-0.557221
-3.743026
1.009213
2.754147
-1.986942
3.709393
1.746159
0.068792
-1.932473
0.024469
2.275941
0.318139
-0.694877
0.982886
0.609871
2.179103
2.132583
1.205364
0.880734
0.183653
1.338710
3.461424
-4.843048
-3.203405
4.549320
-1.718686
1.812621
-0.193033
4.362177
-3.580648
0.621135
3.690726
2.291391
1.154928
-1.030524
-3.046481
-0.406492
-1.233566
0.991056
0.401143
-0.614493
0.662198
0.014738
0.932317
-0.754579
-2.194885
1.676341
-1.081286
-0.259869
3.259128
0.597680
-0.180020
0.397313
0.522711
-0.573393
-2.503660
4.208176
1.145839
1.107976
-3.271212
-1.555947
-0.169402
0.688182
1.284898
3.118362
1.816293
-1.149627
2.128967
-0.652668
2.418824
2.036864
-1.751059
-4.307240
1.175391
-2.401387
-1.432872
-0.138765
2.735995
1.324221
1.517087
-2.330190
0.591596
0.509999
-2.330771
0.031534
3.900362
-0.626293
0.473509
2.012922
0.052719
0.590421
2.077331
-1.921905
0.893754
-3.160358
-2.348404
2.294117
-0.297784
4.178140
0.718502
0.031251
-0.663449
1.259403
3.707639
0.901235
3.144593
-2.316641
0.264910
-1.709260
4.237652
-0.812344
-0.500989
-0.102958
-0.368283
0.094700
1.009256
2.315390
1.127676
0.346336
1.370020
-5.996587
-1.915463
0.281405
2.115671
-2.185309
-1.092956
-3.869680
-1.606216
0.217267
-0.930616
-0.284792
0.163826
0.413059
-1.219401
-1.068001
-1.341604
-0.251746
-1.490924
0.687995
-0.151301
-0.342683
3.271940
1.716334
2.330290
3.178491
1.989226
3.758904
-1.841013
-3.382140
-0.771799
0.586475
1.496437
-2.655001
2.762397
2.474034
0.434644
-1.118491
-1.007356
0.876617
3.070431
-3.035096
-0.457816
0.688131
0.941986
0.850377
-0.615259
1.255265
-1.384152
0.136552
-0.485305
-3.037464
0.938333
-2.541152
1.921174
0.819690
-1.559314
-0.765780
0.669484
0.541468
-0.662164
1.226675
-2.403475
1.012517
0.150840
-0.376044
1.622350
2.112051
2.465940
-0.803591
-5.563597
0.629474
0.344831
2.801399
-2.042757
1.887960
4.630949
3.525591
2.101533
-0.106287
-0.683149
-1.274630
0.654243
1.416073
-2.837606
4.531289
0.890564
-0.435495
2.699902
0.367897
-0.466766
-0.310895
0.854959
0.622950
0.488379
0.224709
2.286204
-1.355165
-0.238232
0.581599
-1.963032
2.859223
2.128407
-0.409021
0.418555
-1.142104
1.504240
1.158234
0.862467
-1.695240
-1.387472
-1.697254
0.523314
1.337357
-0.633144
-2.576498
1.912364
-0.153504
0.321273
1.998598
-1.640092
-1.140503
-0.309931
-1.466569
1.620654
0.341729
-1.083674
-0.252721
-0.650544
-2.691890
3.129828
2.870752
2.171670
-0.910627
0.134136
-0.479975
0.709512
0.594549
-1.265507
-1.298724
1.374518
-2.082335
-0.183999
0.971569
0.269399
1.833694
2.695600
-1.100174
-3.766205
-0.458086
1.346308
1.663722
1.442706
3.214449
1.252413
0.924261
-1.164687
7.591272
3.886806
-0.366960
1.727792
-2.842405
1.453221
-1.896895
-0.065959
0.996712
4.122249
-1.077996
-3.918843
-4.830518
0.151430
2.428284
0.003036
-0.517894
3.653174
-0.902822
-1.955845
-1.894204
3.299891
-1.496830
-6.049305
1.198070
-2.993056
-0.271411
-1.169778
0.085268
-2.319677
-3.819993
0.695481
1.594283
-1.356293
-1.649580
3.268613
2.960985
-1.611940
-0.405617
-3.126956
-2.779626
-2.885679
3.735194
0.223836
-0.508309
-0.400685
-3.336770
-1.655560
1.034532
3.047009
1.473884
1.117059
3.720175
-0.258511
1.551865
-0.318346
2.373281
-1.003194
1.404664
0.607918
1.854921
-0.031564
0.496123
2.408633
-0.663907
-1.104229
-2.215109
2.649495
-3.747884
-1.939705
2.183026
-2.945623
3.105642
2.640519
-2.741148
-4.103965
-3.127734
2.403425
-1.110426
0.765887
-0.385739
-1.530485
1.519875
-0.438938
-2.665969
-3.400026
2.058566
0.110992
1.707109
1.367434
3.903402
2.707976
1.961159
1.899304
1.343666
-0.835620
3.296548
-2.736051
0.440370
-1.316441
-0.994417
-0.673546
2.871837
1.882360
-4.825416
2.589933
-1.778959
1.139351
0.390281
0.840217
1.219087
1.915839
2.505104
-0.614346
0.754815
0.350534
-0.777810
1.112079
-1.628114
-3.060392
1.113547
-1.381254
-1.321089
1.024245
1.917390
4.531163
-1.917091
1.350500
-0.268189
0.204854
-0.469058
1.672771
-2.046708
-0.667138
0.127576
-2.568401
-2.329204
-0.681637
-1.825074
-0.618196
-0.863998
-0.548373
-0.174276
4.537930
-1.796951
0.152644
3.215140
-1.830442
1.471637
-1.330543
-3.063835
-0.270886
0.176328
1.066176
0.811869
-2.088506
0.607396
1.463813
-0.019547
-2.920170
0.892928
3.030534
0.704572
5.490058
-0.888415
0.814066
-0.344746
0.089884
0.090368
1.168262
-1.430285
-2.806417
-1.856629
-1.499991
-0.082371
-0.963149
-0.043307
1.660082
0.137464
-1.420132
-4.607408
-1.625141
1.507202
1.497285
-2.330126
-2.019360
-0.293496
-1.751464
1.245182
-4.165076
3.152542
2.051610
0.380378
-0.196384
5.125064
-2.979180
-1.126736
-1.030394
-0.348054
-2.316802
3.197920
-0.607426
1.576385
-0.087762
-0.944511
-1.063231
-3.060370
0.573733
0.587098
-1.135770
-0.650963
-2.844858
2.618799
2.894115
-0.205970
-1.500703
-2.538547
-0.023418
1.411812
1.293909
-2.807846
-1.324822
0.553747
-0.197727
-1.019339
0.108683
-0.559280
1.191637
-4.661904
-0.790619
0.275247
-0.421360
-3.704211
2.125339
-0.791723
-1.064932
0.658443
3.562759
-3.908339
-1.893963
-1.259717
2.885659
0.507428
-1.748934
0.627726
-2.508337
-0.408728
-0.889578
-1.060080
1.517725
-2.605251
-1.188283
-0.499250
-1.678085
1.228885
2.172362
-0.136794
2.582677
2.842172
-0.960220
1.974739
-1.010357
4.361670
-1.632173
2.156963
-1.824464
1.149567
0.078075
0.726276
-0.016944
-0.770339
-3.929501
1.731476
-4.032931
-3.335758
1.229131
-3.560168
-1.798581
0.299923
-3.673196
1.925391
-0.338986
4.264093
0.566130
-2.631145
-0.751145
1.554105
1.722773
1.845892
-0.812390
1.668144
-1.094693
-1.108631
-0.939245
1.310502
0.313858
-1.283428
-0.724446
-1.811104
-0.301623
1.295608
0.712242
-0.611788
1.217917
-0.950545
0.667492
0.726422
-0.671931
-0.572262
1.534893
-0.397704
-0.166487
-0.564161
0.597424
0.337435
0.051251
-1.540969
-1.469138
-0.995728
1.746990
0.687706
-1.087110
0.549262
1.258541
-0.784688
-0.917529
0.076763
-1.842472
-0.432223
-0.582693
-1.372175
0.094574
-0.832611
0.297133
0.793165
0.188225
0.171152
0.915735
-0.469146
0.517004
-0.643142
0.529340
0.789418
-0.343155
0.152509
0.119528
0.632920
0.237237
-0.625120
-1.205552
0.124416
-1.741563
-0.080268
1.046769
-1.258731
-0.274646
-1.966611
1.129469
-0.448417
1.108663
2.052790
0.399030
0.478580
-0.432509
-0.515472
-1.797638
0.662607
-0.899010
-0.281815
-0.353099
-0.758178
-0.689133
-0.126697
-0.434987
0.509455
-0.788146
-0.668907
1.551616
0.016528
-1.575912
0.078095
-1.233398
-1.892155
-1.591086
-0.698921
0.431207
0.278666
1.475208
-0.694175
-1.062872
-1.875927
-0.701703
0.464784
-0.714108
-1.601584
-1.774669
0.943959
-0.631544
1.217360
2.314932
0.690117
-1.226015
-2.858281
2.166675
1.057080
0.501408
-0.840667
-1.608993
-0.294403
0.722525
1.929887
0.648875
0.488266
-1.371028
2.676158
-0.630257
-2.530808
0.048748
-1.557991
-0.198583
-1.793463
-0.171565
-0.323407
1.477839
-0.675721
0.631484
-0.694205
0.347721
0.451428
0.813854
-1.507343
-0.450713
-2.548000
-0.316730
-1.455592
0.896644
-0.111054
-1.699052
0.758865
1.235643
-0.161800
-2.492104
1.064126
1.297720
-0.674013
-0.965145
-0.932312
1.870648
2.233662
-1.663165
0.132789
-2.053534
1.203290
1.062957
-0.460710
-2.721634
-3.005983
-2.101451
-1.204575
-0.364691
-0.726526
-1.709188
-1.487877
3.141586
-0.420989
-0.368475
-0.699927
0.124775
-0.713951
-1.289426
-1.147167
0.977476
0.072891
-1.457198
1.249144
-0.368110
1.373046
-2.522417
0.072411
2.263504
0.975793
-0.587693
-2.991188
-0.679529
1.707217
0.515923
-2.706023
0.384603
-1.247291
-3.440665
-0.703819
1.064833
-1.364884
0.734534
1.294753
1.338720
1.108741
0.309208
-0.115943
0.709625
-0.075707
3.121062
0.245967
-2.148561
-0.122374
1.870466
0.895886
0.184541
0.883998
1.046731
-0.662840
-0.482731
1.611294
-0.171722
-0.078312
-0.906999
-0.171355
1.235502
1.180261
-0.814325
-1.068715
-0.604841
0.897765
0.784166
-0.039304
0.662354
0.315221
0.784919
0.867209
0.819208
0.366308
-0.000149
1.043091
-2.085368
0.261067
-0.721094
-0.454651
0.664201
0.266111
2.102333
-1.931023
1.274075
1.175644
-1.107869
2.347956
-2.025213
-0.057247
-1.340931
-0.066565
0.864370
1.563192
-0.075906
0.219533
0.103078
-1.470033
-0.412853
0.476986
1.111053
0.565197
1.557820
-0.330617
-0.062155
-1.252256
0.182856
1.837632
0.125435
0.503668
0.414756
2.493543
-1.113515
-0.736486
-0.518227
0.951514
1.140630
0.550926
1.109686
0.727628
-0.055096
1.152300
-0.789283
1.388945
-1.883600
0.918569
-0.540768
1.100074
1.291840
-0.018639
0.160777
0.541543
0.626136
0.273801
1.046979
0.806496
1.294302
0.348750
1.641451
0.730165
0.051706
-1.080460
1.208919
-0.229274
0.815422
0.275363
-0.909190
0.492176
-1.346012
-0.343711
1.121721
0.802673
0.187933
-0.321914
1.157027
0.167337
1.156880
-0.109433
1.815642
-1.402988
0.579301
-1.121408
0.078096
-0.891952
0.096338
0.936097
0.115481
1.260189
1.073217
0.527229
0.975238
0.677014
0.299285
-0.036414
0.050848
0.677139
0.410912
1.164128
0.384093
0.930179
0.917060
-0.226253
-0.630230
-1.011379
0.231296
0.823509
1.129252
0.208747
0.661814
0.861143
-1.339215
0.269166
-0.715003
0.646216
1.199412
0.754805
1.055179
0.619294
0.993838
-0.831628
-1.031689
1.064234
-0.084894
0.861481
-0.616949
0.578619
0.186133
0.638757
0.755147
0.160082
0.000533
1.437607
-0.278843
0.802625
0.116676
1.125062
-0.319836
0.372195
-1.507382
-0.644988
-1.120868
1.810819
-0.261021
0.672228
-0.352281
-0.488197
0.052117
2.155643
-0.798001
0.844095
-1.555429
-0.887475
0.607899
0.315178
0.089143
0.329110
1.982321
1.491418
-0.659020
1.427466
-0.647229
-0.721079
-0.320985
0.174045
2.256949
1.378336
0.619112
-1.242509
0.141595
0.945998
-0.319252
0.734618
-0.313267
-0.494453
0.211133
0.198656
1.010904
1.056366
0.005907
1.228793
1.191210
0.774312
0.665678
-0.069592
-0.032248
-1.521860
1.524040
0.144547
-0.531221
-2.049969
0.134694
-0.307897
-2.016119
-0.974407
-0.300560
0.755948
1.627294
1.676581
1.868242
0.891071
0.552929
0.630726
0.695751
-0.208348
-0.177030
0.079479
0.174792
0.757400
1.203485
1.389554
0.605094
0.297411
-1.245650
-0.008554
1.231288
0.821464
-0.295995
-0.180612
-0.442117
2.255674
1.325985
-0.206816
0.680065
1.624248
0.361567
-0.283688
0.698884
0.499670
0.207062
0.660677
-0.242131
0.745494
1.013137
0.317281
1.779200
0.642513
1.292973
0.975388
0.051985
0.600038
-1.294254
-0.587667
0.074997
-0.762889
-0.522031
-0.006925
-0.021675
0.573618
0.453130
0.786834
-1.633535
0.221928
1.768931
1.404278
-0.198663
-1.166371
0.670899
-0.160976
-0.854209
-0.233766
0.695843
1.274585
0.605806
2.841004
2.692771
-3.333347
3.150507
0.226066
0.467376
0.227613
-0.143971
-0.434086
4.712358
-0.319127
-0.002205
-4.016484
3.637591
-0.733901
0.215643
-1.940948
-2.526608
-0.085995
-1.300554
-1.185269
2.848985
-1.880223
-1.580583
2.328015
-0.056473
-0.325100
1.002428
-0.893698
-2.403384
1.576416
0.529557
-0.854978
-0.830404
-3.213190
1.562827
-0.659615
-3.246590
1.576684
1.519906
1.731099
-5.859705
-2.364548
0.434520
-0.918240
1.934377
-5.287875
-1.359612
2.582666
1.128934
0.748590
-0.709345
2.689688
1.614411
1.146705
-1.014007
0.873336
1.628580
-0.995974
1.368141
-2.523473
-1.711940
0.459107
-1.415679
-1.349855
2.429320
0.579633
0.523779
-4.182895
-5.644198
1.269952
-1.840804
-1.047727
1.111063
-1.465136
1.324987
-0.470170
0.035592
-0.685710
-1.590684
1.108021
-0.856521
-3.525312
2.311157
1.232434
-2.532069
-1.580660
0.987146
0.935697
-2.885871
2.322946
1.484019
