0.037285
5.863388
3.576023
-1.151332
4.453963
-1.266625
-2.694252
0.605465
0.538146
-2.681090
1.553279
-0.199473
-2.817692
3.032303
1.614256
-1.243691
1.646559
3.179874
-7.579692
0.370868
-0.168264
-5.839550
-1.884891
-1.377606
0.166206
-0.867181
-1.308216
-1.854507
-3.227549
-1.297363
4.671179
0.813474
-3.108347
-1.899145
1.678487
-4.784840
-2.077569
6.020340
6.192842
-3.794981
-5.313043
0.974638
0.341560
0.416486
0.699335
-2.835977
-1.314999
-2.228514
-2.317084
3.616569
-4.086112
2.649595
-4.039663
-0.485438
0.196686
-1.074027
-5.430677
-0.805622
-2.323573
3.409245
0.458865
1.308407
3.469229
0.880149
0.321235
5.331526
2.809350
-6.969959
-5.327406
-5.249722
-0.916631
-1.764807
-5.866517
-1.659213
-1.396926
1.774111
-0.861354
-2.430811
5.232809
5.905424
-2.707065
6.321670
-6.356705
-0.639722
0.412855
0.212228
-2.992224
-5.735628
-4.232711
1.706437
-3.058860
4.628809
3.486924
-0.488608
-4.825445
-0.804790
-2.005898
7.906503
-2.195270
0.798254
3.309845
-3.418812
-2.182806
-0.343579
-1.157596
-1.572298
-6.414778
2.018648
2.857482
-5.007651
0.331632
4.732067
-6.126654
3.139095
0.796253
2.991886
-3.947328
-4.999734
-4.612542
2.994569
-0.710290
-3.882788
-0.889362
6.617051
-0.529746
-1.774826
-3.359090
-1.995445
-4.016856
1.579983
4.590883
2.638012
3.957069
-2.468051
3.988908
-2.428029
-1.883708
-1.822990
-0.448999
0.443926
-4.745132
2.362398
2.811908
5.666433
-0.443613
-3.895691
-3.171760
-4.709196
-3.305383
-3.229198
2.379415
7.075627
-3.956383
1.453361
-6.050664
0.660219
1.546125
3.027760
0.305805
-1.552587
0.379873
-2.454509
0.755437
0.404914
-3.254479
0.942008
4.775332
-6.931191
5.006644
-0.826166
-0.878781
-4.018561
-4.848067
-3.450525
0.373444
2.160944
-1.890079
-3.734451
-3.483292
-5.008797
-2.393052
0.318791
-4.448263
0.843371
4.113024
0.460733
0.426946
-2.882385
-2.765371
-5.140670
-2.693787
2.330109
3.841766
-0.289249
-4.586869
0.126447
-0.329075
4.708845
5.925851
0.310711
4.028387
-5.306831
-0.410665
2.350335
0.303524
-0.937828
-3.578107
-5.062463
-3.610426
-5.059004
-4.365334
-6.361416
-0.020325
-0.701060
-0.840680
3.919339
-1.871735
3.134071
-3.513636
3.295439
-6.034734
-4.273339
-0.983806
0.259116
2.291307
-4.948874
4.171211
-2.783824
-1.565932
4.219503
3.286848
1.465735
5.177775
-2.891328
0.086517
-4.478253
-3.654165
-0.468741
-1.624584
-0.760887
-1.555484
0.291152
-4.857289
-0.881573
5.634609
1.455475
-0.564587
2.350575
-6.574191
3.413803
3.019495
2.661255
-2.260851
0.248377
1.644717
3.481425
-6.540529
-5.115254
2.391715
3.542209
4.780580
-5.603918
-5.218106
-0.652149
0.023529
-1.744075
-6.430123
-4.649428
-7.431715
3.195008
3.617033
-4.884981
1.875315
-8.203352
-1.801564
-0.315511
2.970919
-2.509271
-3.293850
3.098175
5.460217
4.396600
2.087229
-1.559292
-4.001346
-4.673371
-3.470358
2.374335
-0.430616
-2.654994
-2.346605
-3.878113
3.133586
-6.607567
0.429542
4.552814
-3.642766
-0.625048
-1.498150
3.107018
