0.653335
-0.436324
-3.077808
-0.441991
-0.717007
0.155677
-0.423730
0.486753
0.006043
1.128215
0.022443
-0.373202
-1.528372
-1.453850
1.841033
0.179453
0.823546
-0.573896
-1.197397
0.248720
0.092005
0.608326
-0.513710
-2.566176
-0.221375
0.303715
0.448582
-0.613113
0.738201
-0.558021
-0.744701
0.436953
0.628159
0.180022
-0.547000
-1.476106
0.204626
-0.758542
-1.588285
-0.804257
1.517164
0.016645
-0.377496
0.707744
0.984832
0.050208
-0.595136
-0.193708
-1.956436
-0.641586
-0.987728
-0.698812
1.164780
-1.124238
0.464597
-0.507513
0.745590
0.912883
0.076616
0.243892
-0.476879
1.255088
-0.241827
1.289455
0.439543
0.155659
-0.452193
0.072784
0.361231
0.990551
0.526452
-1.495856
-0.008741
-0.942330
-0.599400
1.664442
0.977861
-1.197426
0.635077
-0.094023
-1.032738
-1.499145
1.401074
0.207078
0.445226
-0.108091
0.029889
-0.960029
1.175220
-1.149347
0.986521
0.488366
0.617646
0.307100
1.781194
-0.365738
3.021377
0.907011
0.524967
0.354967
0.048390
-0.916269
0.546705
0.444421
0.418091
0.086441
0.349441
-0.109798
-0.509498
-0.106624
0.279837
2.101143
0.825257
-1.897799
0.211341
0.116404
-1.142346
0.539368
2.306518
0.901337
0.408424
0.469987
-0.421852
0.008656
-0.510130
0.756884
-0.333083
0.816804
1.451716
0.897214
1.344849
-0.959400
-0.743551
0.867139
-0.348854
0.815642
-0.275517
0.136796
0.206927
0.580312
-0.356154
-1.499467
-1.399107
-0.799093
0.064766
0.111627
-0.088070
-0.258057
1.112814
1.136171
1.110599
-1.076818
-0.535829
0.730049
-0.605002
0.764293
0.221291
-1.141603
1.554465
0.414158
-1.766899
1.704757
1.318179
-1.524357
-1.537997
-1.412906
0.052686
1.122305
-0.341979
-0.161236
-1.025470
-0.200698
-0.577100
0.244757
2.110058
-0.447806
0.250343
0.497544
-0.141568
0.118933
-1.115090
0.463827
0.193823
-0.706719
-0.413438
-0.333620
-1.633947
0.907348
-0.246967
-0.343864
0.119969
0.088088
-0.302591
0.103693
1.146633
0.019276
-2.328529
-0.557338
-1.962375
-1.546595
-1.653349
0.377331
-0.208253
-0.142843
-2.321326
-0.998393
-0.247382
-0.605321
0.872423
0.901204
-0.206178
-1.309363
-1.964013
-0.033271
-0.411627
0.268576
0.249878
-1.286788
-1.304778
-0.152725
0.758606
-0.965360
1.015979
-0.324488
1.133067
0.143145
2.810839
-2.618531
-0.260889
-1.248264
-1.144872
-2.184666
-0.620045
-0.605246
-0.824757
-1.125219
1.315600
-0.949171
0.953503
1.449706
-0.591593
-0.131284
-0.569853
-1.995719
-0.048320
-2.699023
-0.468608
-1.408706
0.208164
-1.903288
0.714344
0.805272
-1.485489
-0.721670
1.270549
0.864521
-0.860538
-0.122911
-0.446481
-0.144256
-2.451510
0.571637
-0.621521
0.160492
-0.739001
0.741947
0.978857
1.468434
-1.744903
0.394316
-1.096604
-2.004949
-0.646961
1.595872
0.140734
0.698576
-1.381569
1.146034
0.267105
-0.708658
-0.654491
0.475895
0.400229
-0.280718
-0.625027
-1.723996
2.628422
-1.128088
-1.090651
0.690996
-0.154257
-0.236173
-0.159824
1.237807
-0.022123
-2.041744
-1.429004
-1.588425
-0.557708
-0.348380
-1.800584
2.026881
1.288896
-0.656144
-1.412124
-0.378136
0.395606
0.683576
0.505116
-0.002247
-0.927102
0.793549
-0.166525
-1.306301
0.395761
-2.299030
0.975867
-0.164944
0.402074
0.057050
0.073886
1.566796
-0.114597
-1.846616
0.655033
-0.467547
1.258523
0.937302
-0.453665
1.304581
-0.926215
-0.853035
-1.641583
-0.547356
0.507392
-0.961158
-0.202728
-1.672063
0.143764
1.034796
0.406893
-1.963983
0.176076
1.926092
-1.406561
-0.547900
-0.974096
-1.366982
-0.131764
-0.497722
-0.027946
-1.047084
-1.033194
-1.003391
0.729143
-0.947031
-0.003477
0.426594
1.656983
-0.263030
0.515889
-1.271321
0.428340
0.681403
-1.101841
-0.495739
1.507480
0.403035
-0.630238
0.521418
1.975932
0.165316
-2.173033
-0.025375
0.105776
0.191159
-1.009352
-2.881373
0.465676
-0.801723
-1.809700
-1.476533
-0.948352
0.636110
0.316215
1.177119
-0.715843
0.515891
1.721206
-0.498018
0.141707
-0.724734
-0.195094
-0.793484
0.142943
1.126464
2.025915
0.920597
-0.603462
0.430141
1.193081
1.575715
0.921475
0.954277
-1.962162
0.185995
0.685171
-0.971843
-3.012336
-1.250146
0.092716
0.536611
1.065070
1.564555
1.757761
1.409986
1.399888
1.482271
0.856639
-0.421703
1.084986
1.319072
-0.487000
0.027998
-0.388497
-0.244843
0.760980
0.499190
1.483922
1.760162
0.700497
1.391511
-0.750479
-0.254477
0.787886
-0.202018
-3.460583
-2.211466
-0.687576
1.831763
-0.100762
-0.716092
-0.050493
0.019404
-0.080541
-0.415469
0.671670
0.980313
-0.047059
-0.283065
-0.864760
1.938765
1.528566
2.346379
0.471243
2.612194
-2.497173
0.079467
-1.138619
2.087235
1.153814
-0.359969
0.443146
-2.029239
-0.914552
2.240257
2.022801
1.449487
-0.007669
1.238392
1.714599
1.156784
1.696550
-1.469000
-0.043957
-0.606565
-0.198397
-1.561680
-0.560118
0.113244
1.626470
0.502572
1.067194
-0.555203
-0.301469
1.249849
2.149441
0.267091
1.395299
-0.746188
0.417878
-0.494778
-0.516499
0.008173
1.862377
0.512865
0.112143
0.480278
1.769401
-1.274338
0.575015
0.897065
-1.401790
-1.191337
-0.550128
-0.072298
1.808303
0.525447
-0.801871
-2.015073
-0.550123
0.147917
-0.162752
1.860938
1.062557
0.185700
1.358599
0.230587
0.740735
-0.008914
0.774051
0.432271
1.987225
-0.471734
1.243614
-0.166384
-1.758189
0.179914
-0.036866
2.902682
0.852469
0.283449
-0.959849
-1.640135
0.311018
-1.707143
-0.143156
0.981164
0.492776
0.077086
0.192371
-0.169858
-1.100274
1.759608
-0.878078
-1.002567
0.756883
-0.431713
0.904824
0.738306
-0.190595
1.772840
-0.098704
1.592026
-0.099188
0.990010
-0.134890
0.306720
-0.165057
0.878868
-0.766260
-0.877512
0.805896
0.478046
-0.763313
0.426365
-0.890255
-0.272957
2.267613
-0.497545
-0.461193
-1.776996
-1.304679
-1.800958
-0.166534
0.829953
2.955407
-0.368963
0.164476
-1.192804
-0.836348
-0.561185
-0.679841
-1.791128
-0.182552
1.267726
-0.372298
-1.463982
0.446679
1.044316
-0.721520
-1.600859
1.167908
-2.459731
-1.699614
0.599621
0.381913
-0.199218
0.906981
-2.633250
0.115961
-1.142435
-0.026845
2.359125
1.475457
1.023049
-0.187900
-0.401851
-2.560657
-1.479865
-0.756121
0.858346
-1.879884
-0.286363
-0.166538
1.051250
1.733394
-2.404956
-0.042757
-0.252059
-0.313921
-0.887196
-0.105217
0.369214
-0.838241
0.371416
-0.358354
-0.253615
0.520263
-0.837705
0.695840
2.165931
-0.160763
1.214187
-0.327820
0.051164
-0.543906
-2.031991
0.472212
-0.968946
0.574384
2.861143
-1.337129
-0.285228
0.412960
-0.837750
-0.411882
0.931781
0.844778
-0.390822
-0.449003
2.210116
-1.508479
-0.542511
-0.425459
-0.748350
-2.126675
-0.131247
1.242812
1.932765
0.738377
-0.196261
0.334328
-1.682236
-0.142280
0.257923
-2.199440
-0.789488
-0.503831
-0.667289
1.011001
0.583812
-1.333408
-0.505324
1.687341
-2.021408
-0.545780
-0.365205
-0.952728
0.803560
1.054429
-0.045101
0.552160
-1.678175
-0.481829
-0.922721
0.372083
-0.102889
0.590382
0.599937
0.778020
0.025136
-0.166635
-0.714468
0.988744
-1.179017
2.163979
-0.143215
-1.391458
-0.245439
-0.916000
0.674703
-1.208147
0.478275
-0.020368
0.212705
1.928947
-0.641463
0.856771
-1.597405
-1.488946
0.794995
-0.291422
-1.051615
1.408316
-0.124812
0.075526
-0.411076
0.296983
-0.669510
0.741997
0.510566
0.983179
0.922144
-1.770540
0.708915
-0.191226
-1.307432
-0.535208
0.970931
-0.451182
0.508194
0.795595
1.600637
-1.056550
1.125542
0.207755
1.344841
-0.593742
-0.169508
0.394960
0.454784
1.528178
0.964697
-1.456648
1.021018
0.637143
-0.323549
-1.463284
-1.394035
-1.083143
1.422819
-0.286675
0.774466
0.477139
0.148165
-0.569534
0.104326
0.248269
0.644187
-0.058158
0.197236
-1.243741
2.167679
-0.898251
1.584007
1.037806
1.133181
2.006349
-0.087765
1.820706
0.417211
-1.179245
0.836985
-0.958013
0.213306
1.382216
1.698417
-0.375280
-1.070974
2.072637
-0.542466
-0.426650
-0.864403
-0.365632
-0.587082
0.034969
0.461015
0.475985
-0.745579
-1.134514
-0.380595
-0.363759
-0.916255
0.699290
0.565333
2.149293
1.320498
2.280862
0.408938
-0.439888
0.712893
0.274457
-2.708919
-0.419290
0.570483
0.820198
-0.054727
0.936820
-0.049579
-0.421096
0.236403
-0.429211
0.476126
-1.405347
-0.844839
1.619630
-0.611448
1.477000
-0.959748
1.490171
-0.340275
0.407313
1.400868
0.887501
1.002665
0.091962
-1.378746
-0.953001
-2.196773
1.012638
-0.650168
0.269732
0.906260
-0.638795
-0.940450
-0.147365
0.402120
-0.492793
-0.030584
1.306667
0.454018
-0.564935
0.021171
0.986456
0.817345
0.909206
0.821619
0.988694
1.437168
0.248813
0.907334
-1.364206
-0.944666
0.142382
-0.820005
0.928153
-0.217443
0.169453
-1.155082
0.804638
-0.339073
-1.324365
-0.158511
1.315065
0.102990
0.219222
-0.310882
0.842099
0.765050
0.994920
0.239925
0.090572
-0.564741
-1.160396
-1.589223
-0.627419
-0.996295
2.254947
-0.256120
-0.525797
0.000123
0.899058
-0.095169
-1.723439
-1.479670
-0.993022
-0.122409
-0.536750
-0.556721
1.701615
-0.411503
0.113672
1.730866
0.501634
0.442871
0.832613
2.253485
-0.483766
0.156504
1.157472
-0.380674
-0.276759
-0.153359
-0.481635
-2.945876
-0.823362
-3.514389
-1.599464
0.577300
-0.794611
1.403732
-0.324339
0.500594
-0.027474
-0.865739
0.721684
1.637584
1.045645
-0.753137
0.397115
-0.982112
0.631750
-0.240154
-1.147092
0.022355
0.247051
-0.786804
-0.164119
0.499361
-0.400649
0.229916
-0.678483
1.330826
0.267635
-0.477777
0.316944
0.055801
-0.327334
0.572081
0.692425
0.779169
0.885007
-1.066261
1.142578
0.921997
0.497161
0.785955
-2.859591
-0.632553
-1.191509
-1.866037
-0.694350
0.167819
-0.215907
-0.523468
-2.279441
-0.607325
-1.598063
-1.298702
0.837655
-0.841281
-2.899934
0.960341
-1.387143
-0.380523
1.357966
-0.428906
-0.909929
0.446956
0.998827
-0.272713
1.106559
0.146046
-0.054748
-0.308121
-0.138299
-0.096299
-0.505389
0.146356
-0.220836
0.253661
0.782313
-0.048475
-0.484159
-0.940930
-1.969000
0.577362
-0.477231
-0.692390
-0.241802
-1.248549
0.822547
0.594543
0.521121
-0.315813
0.199304
-0.360436
0.339405
0.228621
0.346211
1.576421
1.694425
2.058993
0.862892
-1.333056
-0.391800
-0.070130
-1.042887
0.281230
-1.640258
-0.519867
0.439493
0.125239
-1.600910
0.980591
-0.374876
-0.850703
-0.064085
0.918630
1.920859
1.218888
-0.900221
0.401179
0.690106
2.847643
-1.403671
1.241450
-1.613521
0.100211
1.886430
-0.531660
0.938171
1.006564
-1.964729
-0.424860
1.732853
-0.050453
-1.756849
1.067539
0.142389
-1.236077
1.302051
-0.307269
-0.782609
0.741006
-0.552731
0.747472
1.491712
0.947071
-0.529761
-0.853041
-0.778476
-1.692486
-0.402753
-0.388995
-0.194056
-0.587253
-0.940874
-1.234949
-1.471979
0.652301
-0.679243
0.332357
3.791522
1.040489
0.471722
0.765469
0.195900
0.012074
-1.239048
1.880512
-1.221336
-0.622982
-1.147714
-0.711263
2.259916
-0.576918
-0.255339
-0.355945
-0.238628
-1.198727
-1.158560
-1.705308
-0.702745
-0.427875
-0.670579
0.003800
-0.432362
-0.131298
0.571049
-0.823056
0.165392
-0.875739
1.560509
-1.816443
-0.410716
0.475481
-1.077369
-1.873322
-1.697514
-0.401052
-0.699934
-0.374411
2.810195
1.615702
1.449867
0.077316
-0.218230
-1.279811
-2.274405
-3.185117
-0.622748
-0.255600
-1.515988
-1.789370
1.097991
-0.198280
1.475070
-0.377642
1.637319
0.256013
-0.103668
0.079719
0.535905
0.346424
0.482629
0.003361
-1.258051
0.086596
-0.633711
-2.939684
-0.054495
0.234373
0.503524
0.793380
-1.724218
0.732875
0.544403
-1.230052
-0.453390
-0.517058
-0.725141
-1.309309
0.628540
0.371429
0.054023
-0.754351
-0.173997
0.180461
1.522932
-0.236955
0.541389
-0.087997
-1.019200
-0.143301
-1.053710
0.227795
-1.530480
0.060622
0.159781
-1.270723
0.910352
0.603092
2.566865
-0.456121
-0.445628
-1.559340
-1.699087
-0.964529
0.259928
-1.459660
1.054552
0.639145
-1.122100
-1.458459
-0.458632
2.073110
0.375309
0.777572
0.157548
0.492818
1.416911
0.417794
1.055833
0.580300
1.040862
-1.330669
-1.249063
0.585244
1.299474
1.461357
0.792479
0.381605
0.035136
-1.121662
0.104293
-0.795750
-0.839800
0.331218
0.210697
-0.302707
-0.086832
-0.930694
0.427818
-0.094694
-0.701956
-2.299568
0.259740
-1.165213
0.766799
-1.745675
0.468422
-1.981403
-1.392760
-2.662759
-0.394697
-0.403165
2.560787
0.457319
2.096118
-1.712935
-2.609367
-1.037412
0.652941
-1.350830
-0.781327
1.441600
0.859086
1.247644
1.475362
-0.520072
-1.293991
0.752723
0.086790
0.038761
-1.713229
-0.290199
-0.754655
-0.180137
-0.139984
-0.158859
1.918706
1.477250
0.233306
-0.848961
1.642083
1.642724
0.585162
-1.088223
-1.761878
-1.455690
-0.199096
-2.198873
0.382485
-1.455835
1.572822
-0.680821
-0.357474
-0.171705
-0.663575
0.484839
0.090254
-0.175616
1.065177
1.685930
-0.820375
0.820643
2.699816
1.098203
0.186333
0.329181
1.034965
-1.247718
1.746732
0.668941
0.806005
-3.447396
-1.789151
-1.376731
-1.328320
-0.547924
1.506858
-0.371607
1.730569
1.554849
-0.277577
-0.089129
-0.310960
0.666633
1.070112
0.004877
-1.107969
-0.476447
0.106841
0.309119
1.637220
0.502673
1.708186
-3.479402
1.273371
1.540960
0.236282
-0.408630
-1.335281
-0.603369
-0.798578
0.034755
0.172736
-1.372330
0.971470
-0.550322
1.229645
2.091484
-0.539110
1.085076
2.272462
-0.042747
0.864581
-1.520541
-0.505004
1.269955
0.197080
-2.506009
-1.201214
1.312310
1.308773
1.918833
0.721364
0.182480
-1.281706
-0.260630
0.473823
-1.828420
-1.124851
-1.120715
0.962530
-0.743449
0.122860
0.007997
2.045436
-0.309583
1.611324
-1.079322
1.138977
-0.797227
-1.195571
-0.260303
-1.503980
-0.926344
0.951872
-0.591238
0.830879
0.780964
1.390066
-0.598595
2.574766
-0.021630
0.294168
-0.934423
-1.164536
0.433687
-0.678141
0.141781
-0.902251
0.773364
0.954204
0.801483
-0.279938
-1.887893
-1.827470
-0.467469
-0.936794
-0.307302
0.671892
-0.579830
-0.815666
-0.337303
-0.562512
0.965151
0.643943
-1.048622
2.926560
-0.162480
1.439313
-0.635014
-1.149980
-2.462181
0.541327
0.165496
1.565554
0.824193
0.666704
-0.085943
-0.541802
0.466124
-0.061397
-0.051137
-0.109909
-0.012739
-0.294848
0.396492
1.031804
-0.097686
-1.484804
0.590860
0.613459
-0.513395
-0.878163
0.844523
1.054531
-0.122225
0.305472
1.245649
-0.621738
-1.213493
-1.661189
1.235156
0.680355
0.245663
1.830314
1.125335
-0.795400
-1.678974
0.163433
-0.373950
0.126242
-0.372181
1.128076
0.133645
-0.551710
-0.573214
0.699985
-0.611912
0.168114
-1.112157
-0.834074
-0.572132
-1.227724
-0.403069
0.033265
0.991287
-2.696533
0.057687
0.199532
-0.428683
-0.021748
-0.769603
1.676133
1.733623
1.075539
-0.533460
1.953214
1.372567
1.583132
0.503824
-1.500425
0.935506
-0.254190
-0.652449
1.469338
0.284989
-0.112023
-2.166167
-0.035712
-0.064127
1.009779
0.623014
-1.586941
-1.679602
0.143115
-1.223398
-2.529669
-0.780852
-0.753304
1.358237
0.939107
0.617874
0.700264
-0.842135
-0.690893
0.386862
0.275900
0.300897
-0.599697
-0.939939
0.067858
-0.711680
1.000825
0.163154
-0.142178
-0.984962
0.350648
1.370836
-1.590878
2.148821
0.275411
0.541000
-2.358136
-0.761691
-0.900703
-0.864353
0.253106
-1.419014
0.198709
0.545478
-1.132666
0.122783
-0.798618
-0.327125
-0.006457
1.084768
0.650539
0.212923
-0.432079
0.621027
-0.106400
-0.879009
1.389897
0.664492
0.469572
1.150212
-0.545249
-0.137672
-1.086464
-3.918696
-1.120057
0.045350
-1.656541
-0.465532
-0.576406
-0.905758
-0.760729
-0.723800
0.272318
-1.252771
-1.617540
-0.143395
1.335819
0.017432
-0.342577
-1.009343
-0.365410
-0.518011
0.451649
-1.209887
0.115811
0.132351
1.084518
1.571123
-0.917154
-0.932137
-0.706983
-0.692680
0.298240
-0.330386
0.323543
0.215491
-0.238257
0.081664
-0.693631
-0.708398
1.003638
-1.145037
1.610015
-0.416495
-0.611049
-0.246727
-0.152650
0.181038
0.170110
-0.512409
1.031143
-0.598012
1.082385
0.317698
-0.323156
-0.056152
0.571483
0.914297
-0.355927
-0.275239
0.474220
0.017558
-1.176553
-1.005247
0.789535
0.447845
-0.774048
1.615740
-0.593691
-0.555318
0.362054
-0.261014
-0.611586
-0.514583
-0.238527
-1.109008
1.011987
1.209565
-1.495788
0.709789
-0.180588
-0.471446
0.563648
1.789795
1.242710
1.032763
-0.888991
-0.347478
0.932106
0.135430
-0.563251
0.717092
1.425625
-0.328129
-0.406183
1.647507
-2.123817
0.296710
-0.291847
-1.221980
0.397053
0.008696
-0.151598
-0.816868
-0.933836
-0.232424
0.117231
0.603525
0.702998
-0.096193
-0.684479
0.615400
0.484831
-0.209650
-0.122164
-0.380595
-1.138344
-0.331762
0.767084
1.505931
-0.027163
0.841688
0.003206
0.298877
-1.228110
-1.539268
-0.336328
1.221007
2.622045
-1.514031
-0.607612
-0.091814
0.024381
2.123112
0.992084
0.540684
1.228075
0.553404
-0.001647
-0.097241
0.372186
1.406914
0.026338
-0.349289
-0.164603
-0.042673
1.478975
-0.105884
-0.702701
1.410722
-0.934178
-0.173183
0.315067
-1.046126
-1.455025
-0.838469
-0.170422
-0.203566
0.040329
-0.285618
-1.816940
-0.316695
-0.584252
-0.543637
1.191365
-0.928540
1.476315
0.508665
-0.712653
1.533991
-1.168897
0.551432
0.430937
-1.484330
-1.893973
-0.591362
0.252029
-1.633716
-0.605074
0.018994
-0.274055
1.357850
-0.106784
-0.759187
2.267014
-1.582392
0.742430
-0.218076
0.102736
-0.543753
0.163884
-0.370226
0.425870
-1.548384
0.059818
1.003635
0.947969
-1.257221
0.652970
-1.398700
1.342411
2.123676
-0.781746
-1.777961
-3.871498
-1.276700
-2.683080
0.359507
0.194232
0.665222
-0.348625
-1.070863
0.289656
0.421920
-1.345703
-1.122374
0.528608
-0.343964
-0.433518
0.217840
0.096960
-0.795093
-1.746476
-0.298905
-0.210593
0.264105
-0.471363
-0.063721
1.038799
2.674705
1.245306
-1.716958
-3.223368
-2.737019
0.211543
-1.754479
1.687227
-0.788376
0.430222
0.444400
-1.173580
-0.815114
-0.961537
0.792699
0.560110
0.114723
0.217178
-0.078857
-0.096244
0.042280
-1.493894
-0.870642
-2.151078
-1.011620
0.480443
2.118622
0.798292
3.122390
-0.974903
-2.130825
-4.555029
-2.244373
-0.698967
0.397254
1.075886
-1.401453
0.388031
0.028331
0.100629
0.491766
0.640621
-1.670124
-1.765993
0.283927
0.777915
0.664728
0.464395
-0.238441
-1.859744
-0.904530
-2.840053
-1.387890
-1.552908
1.776013
1.868349
1.295169
-2.546845
-3.521309
-3.085114
-1.042501
0.231025
-1.142115
-0.805735
1.040740
0.141618
-1.950219
-0.412561
-0.575307
1.597563
-1.846700
-0.244777
-0.392585
-0.239961
1.633151
1.046841
-1.840256
1.149236
-2.673661
-1.284582
1.566178
-0.436672
0.631370
3.507273
1.226167
-3.120907
-2.316670
-2.878722
0.093507
1.695591
-0.587049
-1.334005
-1.524690
-1.429492
-1.062234
-0.989070
0.395050
1.321987
-0.663403
-0.453380
-0.474927
1.047186
-0.106229
-0.343252
0.641032
-1.883541
-1.417832
-0.002536
0.442169
0.838553
1.155512
5.311370
-0.891492
-2.262578
-2.911802
-0.028222
0.506281
0.759104
-0.831125
0.944865
-1.731521
-0.245463
0.250052
1.763370
1.283402
-1.568613
0.437555
-0.364209
-0.819408
-0.329109
-1.619717
-1.495394
-1.265001
-2.027272
-0.024910
-0.675349
-0.176034
1.929933
0.514869
0.180008
0.203551
-1.915957
-2.463979
0.109966
-0.158962
-1.340543
-0.519697
-0.916616
1.222787
-2.017161
-2.220901
-0.496343
-0.344909
0.022768
-0.147666
1.886160
1.229561
1.511795
-0.041785
0.170011
-2.055059
0.539345
0.015983
0.688696
0.159284
2.497363
3.124806
-1.279583
0.405213
-1.216141
-4.908794
0.666737
-1.787752
0.983361
1.387566
-0.104774
0.670829
-0.972455
-0.049961
-0.633274
0.183998
-0.073253
-0.291479
2.725999
-0.794555
-0.179130
-0.374204
-0.626165
-0.086654
-0.184628
1.449720
1.495157
1.857802
1.521782
0.479292
-1.328249
0.425288
0.909604
-0.303067
0.494736
1.716931
0.850933
0.455098
1.656577
1.916030
-1.337225
1.316517
-0.527533
0.146879
1.323086
-0.856747
-1.557539
0.176872
-0.665995
-0.544030
-0.030096
-0.539107
0.313478
1.986938
0.928118
0.454837
0.175085
0.529408
-0.630640
-0.576637
1.125095
-1.464459
0.500938
0.366023
0.006249
0.442227
0.312748
-0.837202
-0.706344
-1.393403
-1.837711
0.416827
-0.164520
-0.340558
0.618556
-0.045608
-0.683966
-1.061237
0.338358
1.124065
1.213854
0.209248
0.226133
-1.139011
-0.226568
-1.472473
-1.135078
0.123793
-0.658058
-2.035544
-1.721483
0.402520
-0.927231
0.425450
-0.770399
0.751613
-0.527896
0.311192
-0.123302
0.173167
2.293911
-0.262182
-1.379886
-0.942691
-0.008813
0.627009
1.263832
0.662318
-0.745934
0.600988
0.515403
0.430935
-1.105806
1.188371
1.232368
0.088079
-0.743231
0.853232
0.688676
-1.703771
0.116445
-1.867154
-1.223107
2.509379
0.472346
-0.401466
-1.020766
0.139110
-0.861014
0.100492
-0.344063
-0.922965
-0.722074
0.046939
0.162598
-1.052784
-1.295122
0.338548
1.211311
-1.579138
-2.086028
-0.790264
1.050367
-0.833641
0.085648
1.128201
-1.144389
1.292876
-0.896494
1.200290
0.446750
0.147492
-0.563931
-0.527688
-0.640388
-0.858872
-0.278111
1.626390
0.055504
-0.786864
-0.506963
0.035330
-1.191059
-0.564103
-0.440272
0.079737
-0.291366
-2.490955
0.882218
1.437756
-0.842341
1.633229
-0.569316
0.007355
-0.136680
1.248875
1.322802
1.486875
2.026185
-0.180924
0.665717
-1.291546
-0.143400
-0.570010
1.076786
1.701129
-0.160789
0.559521
1.009416
-1.048626
-1.883399
0.380722
-1.847881
-1.695486
-1.046764
-0.426435
1.172204
-0.717115
1.332155
0.126478
-1.170896
0.098356
1.633372
1.493289
-0.062511
-0.167247
2.087758
-0.340835
-0.342910
0.205798
1.396298
-0.451996
-0.857644
-1.213993
-0.063636
0.260080
0.871635
-1.178115
1.410976
-0.324041
-0.114520
-1.758983
-1.395367
1.284801
-0.407078
-0.849789
-0.353123
-0.887004
0.393679
-0.359659
0.522778
0.017505
-1.950292
-0.033215
-1.097570
-1.177175
-0.882378
0.142531
-0.751857
-0.118433
0.443545
0.453045
0.512330
-2.557906
0.067494
-1.062308
-0.087418
-1.050389
-0.215891
-0.699513
-1.688752
1.073666
2.014368
0.165661
1.069598
0.914821
-0.749403
0.387165
1.959278
1.356216
-0.697739
2.286508
-1.205085
0.820177
-0.759368
-0.493735
-0.569214
1.222751
-0.176745
0.953144
-0.564974
-1.835911
-2.193030
-1.245742
-0.547717
-0.149492
-0.232049
0.071352
0.764190
-0.714696
-1.206648
-0.850713
-0.840924
0.408215
-0.756423
-0.068364
-0.076711
0.341381
1.492964
-1.350613
-0.006850
1.357700
-0.636366
-1.572044
-0.080469
1.154342
1.025107
-0.176711
1.668541
-1.352745
0.072186
-1.072327
-1.185393
-1.261300
-1.489468
1.242092
-1.416125
-0.148179
-0.525802
0.418654
-0.265525
-0.828908
-0.286800
0.585459
0.656729
0.515255
-1.372530
0.170824
-0.262110
1.267504
-0.152075
-1.093998
0.183041
-0.116177
1.924607
0.740169
-0.462962
-0.721567
0.804165
2.248606
1.129970
-0.846226
-0.693629
-1.139034
-0.092489
1.088100
-0.792054
-2.699991
-0.660634
0.034429
-2.199345
-0.622347
-0.281040
1.321454
1.379166
0.746659
-0.471386
1.001394
-0.425803
-0.532966
-0.208466
-2.299596
1.922515
0.924903
0.423250
0.573310
-0.415201
-0.838361
-0.460885
-2.140108
-0.679144
-0.664272
0.574397
-0.021531
-0.083403
-1.323661
-0.461296
-0.527331
-0.314722
-1.052139
-1.617086
-2.804619
-0.035056
-0.821524
2.269608
-0.459776
-0.449898
0.164841
0.705896
1.766980
0.280922
-0.267156
1.844838
-1.211906
-0.798549
-1.646142
1.599132
-0.710492
-0.976011
0.762512
-1.748243
-0.162894
0.679085
-0.164774
-2.080297
-0.591905
0.618710
1.667482
-1.885024
-0.404510
0.248078
-2.301392
1.641059
0.217503
0.186496
0.036847
0.251580
-0.217206
-0.646206
-0.932454
-0.595793
0.616518
-1.050147
1.661270
-1.037783
0.687104
-0.737684
0.778071
0.626732
-0.465938
-0.002556
-0.433046
-0.685779
-0.716880
-0.190078
-0.302288
0.672740
-2.107781
1.303587
0.417088
0.208903
-1.167091
2.169379
0.718237
0.455612
-0.148981
0.161617
-1.334043
1.432440
-0.786851
-0.438403
0.302013
-1.002117
0.393896
0.165680
1.156554
-0.130297
-0.736119
0.695882
0.684006
1.400862
-0.740294
-0.262805
0.780356
-1.307823
0.930483
1.260985
1.318387
1.040025
-2.111957
-0.557836
0.449690
-0.490245
-1.071910
-1.090892
-0.444880
0.245921
-0.091483
0.185557
-0.045745
-0.467056
-1.188653
-0.090974
-0.328880
0.756469
0.664139
0.937604
0.746735
-1.728619
0.973893
0.262046
0.442549
-0.418071
2.581798
-1.939887
-0.820575
1.904764
-2.252091
-0.759280
-1.242560
-2.024758
1.304035
-0.083590
0.244715
0.397205
-0.681716
-1.670492
-2.175519
0.464946
-0.422827
0.169881
-1.340098
1.598957
-0.722281
-0.664938
-0.237478
0.295581
0.772859
1.517050
0.306073
-0.123940
-1.122504
-0.153646
0.991281
1.204230
0.502608
-1.340404
0.021817
1.147695
-0.159964
-0.619424
0.741857
-1.279422
0.061673
-0.208657
0.130880
0.995228
0.106846
-2.529021
-0.816870
-0.721525
1.706710
-0.095168
-0.572641
0.253120
-0.645703
1.107402
-1.480083
-0.405716
0.364414
-0.130154
0.072614
0.895159
0.087548
-0.327635
0.137707
-2.226842
-0.831391
1.756957
0.212675
0.313641
0.695853
-0.381310
0.158233
-0.780498
2.572024
1.272823
-0.752548
0.084865
0.590354
0.787799
0.744827
0.801604
0.035490
-0.760458
0.536901
-0.063862
0.398036
-0.224328
-0.505316
1.281795
-1.958881
2.587773
-1.229154
1.479031
0.258717
-1.621541
0.366971
-0.941104
-1.909764
0.717140
-0.418049
-0.641136
0.257520
0.303093
-0.574584
1.392689
1.091245
-0.558489
0.648689
-0.317695
0.475488
0.595391
-0.081960
-0.157369
0.010000
0.833696
0.351029
-0.576470
0.458041
-0.187103
1.727232
0.311485
-0.871383
0.796473
1.125467
0.109115
-2.046824
0.016730
-1.355202
-0.778013
-0.424325
0.254444
0.703071
1.041163
0.911422
-0.087098
-0.221143
0.965462
-2.889013
-0.570938
-1.302043
-1.656844
-1.748473
0.834274
-1.955783
0.202569
1.168783
0.790112
0.498357
-1.454828
0.338297
0.365328
-0.508939
1.066835
2.137137
-1.174348
-0.529497
-1.903105
0.066534
0.337419
0.172272
0.315903
-0.703989
2.618017
1.262677
-0.293366
-1.448828
0.952815
-1.048076
-0.766658
0.974849
1.731322
-0.227952
0.232019
-0.506795
-1.495527
0.827138
1.091104
-0.595628
-0.869776
0.090222
-0.334396
0.062280
0.437994
-0.101584
-2.035593
0.996189
0.471476
-1.860688
-0.305816
-0.374182
0.249181
1.070244
1.629668
1.974868
1.068318
-1.271957
0.919498
-2.973530
1.409499
0.819249
-1.803974
0.205987
1.505857
0.784810
0.949943
-0.350647
-0.463484
0.207650
0.364557
-1.289641
-0.626277
0.916224
1.568800
-0.472946
0.794812
-0.244512
-1.215759
0.892360
-0.511426
2.674444
2.449220
1.191297
1.662894
0.206171
0.456907
-1.785794
0.504577
0.296487
1.292270
0.785384
0.167794
0.022813
-0.535838
0.687587
0.997497
0.387565
1.006474
0.586472
0.511755
1.526559
0.227385
0.009024
-0.562453
-1.740301
1.811638
1.321139
0.274572
0.611725
0.431914
-0.936472
0.306808
-0.502627
-0.091714
-0.229121
1.052818
0.519243
0.584307
-0.279178
0.760914
1.126721
-0.655543
-0.733194
-0.625256
-0.261319
-1.390239
0.299968
-0.220324
1.291017
0.095180
-0.923272
-0.182572
0.412715
1.567700
1.298715
-1.705520
-0.461344
1.528742
-0.254654
-1.395384
0.417940
1.070661
-1.970949
-0.065534
0.494532
-2.476761
-0.785533
0.929068
0.040270
-0.198709
2.228810
-0.439568
-0.662099
1.192801
1.444455
1.087473
1.793730
-0.941054
0.103835
0.404159
0.801841
0.316860
-0.951542
-0.889141
0.096527
-0.039253
-1.919995
-1.835421
-0.964758
1.192771
-0.032825
1.439100
-1.151663
-0.475610
-0.076915
1.098355
0.164868
-0.771398
-0.707994
0.365742
0.824930
1.011928
-1.690687
-0.004500
0.494768
0.121153
1.594556
0.503202
1.434260
0.875266
-1.952113
-0.949529
0.646882
-0.689084
-1.234357
-0.745788
-0.903977
-1.926327
0.659023
-0.921566
0.477980
0.880179
-1.550334
-0.274391
-0.598446
-0.060878
1.248833
0.631488
0.387301
0.335287
1.464515
0.164646
-0.477579
0.719449
0.204892
-1.322055
0.435058
0.234885
-2.349270
0.520401
0.372216
-1.147455
0.840586
-2.517215
-0.863517
-2.173027
1.158744
0.418081
0.844409
-1.587663
-0.814444
-0.052653
0.737917
1.054671
-0.616494
-1.050997
-0.251377
-0.872437
-0.021545
0.027957
-0.350054
-0.251577
-0.230933
-1.331006
-0.720561
-0.591033
-0.502927
1.143062
-0.381706
-2.772730
-1.689049
-1.677500
-2.580148
-1.096109
0.298839
1.719652
-0.443028
1.262914
0.943836
0.659087
-0.738421
0.495652
-0.337290
-0.046141
1.038299
0.848401
0.629619
-0.533398
-0.903682
-0.413174
-1.758759
-3.602240
-2.768055
0.604294
-0.519653
-0.479161
0.748952
-0.774782
-2.279924
-1.233984
-0.913636
1.354190
2.650500
0.328632
0.927509
-1.730837
0.142922
-0.381601
-0.172303
1.087772
1.534020
-0.220991
0.587655
0.010109
0.330453
0.469091
0.749137
-0.147942
-2.008933
-3.151346
-3.574884
-2.766568
-3.678788
-3.656781
-1.519916
-3.572032
-1.702218
-0.097965
1.017358
-0.416377
-1.545163
-1.505549
-2.111679
-1.938378
0.874743
-0.134111
0.058600
-0.969454
-0.760551
-1.771774
0.397953
0.789362
-0.725667
-1.134969
0.908922
1.087878
-2.212005
-2.459424
-3.542511
-3.786340
-4.145566
-3.562814
-1.685472
-0.325567
1.026657
1.375611
2.356577
0.985121
1.091163
2.293724
1.061772
0.824161
-1.598693
1.490585
-0.796265
-0.197133
-0.192888
0.012829
1.472807
0.762451
0.885314
1.641992
0.053290
1.519170
0.099586
-0.330418
0.290970
0.994533
-0.996816
0.178930
0.450156
0.132087
1.243099
0.289964
0.426648
0.809686
1.101268
0.073132
1.235677
-0.182343
-1.500990
0.308613
1.201363
1.303631
-0.213398
-0.264475
-1.783924
-1.450088
-0.114017
-1.053753
-1.074147
-0.328010
0.601770
2.247527
2.882043
1.468199
1.653017
-0.717602
0.445778
0.943235
1.738542
1.501126
0.365560
-1.537225
0.074455
0.742104
-1.421308
-0.022663
0.709540
-0.750342
-1.756184
-0.979453
0.607691
-0.477831
2.420162
0.632504
-1.606292
-1.111143
2.237881
2.003489
0.212055
1.593549
-0.755487
-1.093365
0.072821
0.917343
0.869237
1.210790
1.088062
1.223681
-0.124100
0.658088
-1.267569
0.700413
0.589981
0.069760
-1.252489
-2.028849
0.029846
-0.270794
0.853174
-0.980010
1.397151
-0.474162
0.106704
0.097921
-0.208886
-0.152225
1.152084
-0.374665
1.409592
2.489394
0.000266
-0.041392
0.717404
-0.352130
-0.160766
1.654872
1.783534
1.589921
-0.011816
0.302843
0.671494
0.697896
0.656119
0.157976
0.515701
0.125919
0.546990
-0.487639
-0.927190
-1.052724
-0.073466
1.000020
1.541093
0.005886
0.477190
-0.561524
2.440982
1.578815
-0.196513
1.695729
-0.159042
0.765579
-1.182517
-0.069104
0.685283
0.448262
-0.192381
0.048933
-0.779761
0.543464
0.961070
-0.656201
0.392841
0.650167
-1.499353
0.048287
-0.730428
1.204480
-0.024081
1.168201
-0.517141
0.515189
1.131514
0.223679
-0.053516
0.034153
2.173679
0.988017
-0.443920
0.986336
1.037035
-0.931709
-0.135518
0.568868
-2.466580
0.086138
0.980752
-0.964885
-0.862223
0.389831
-0.015247
-0.531177
-0.676243
-1.553194
0.369887
0.304393
0.127723
0.545116
2.994147
1.652315
1.439173
0.938449
-0.115354
-0.442191
0.419235
-0.010133
0.211742
0.978095
1.841203
-0.567291
-0.101470
1.227087
0.207232
-0.458099
-0.223126
0.570387
0.086468
-1.064739
0.254697
-0.277035
-1.692860
1.168949
-0.392575
-0.273367
-0.018644
0.775030
0.473766
-1.358711
1.206923
-0.244027
-0.014827
0.480708
-0.410426
0.233892
0.316769
0.248229
1.758499
1.519073
1.748342
0.163456
0.468419
0.609781
-2.185434
0.446276
0.766819
1.253638
0.776174
0.302116
-1.646596
-0.947401
-1.368497
0.045522
-0.043606
-2.057026
0.444629
1.064838
-1.705214
-1.111115
-0.137320
0.373547
0.888376
0.080685
-0.990302
0.970314
1.197033
0.864874
-0.088182
-1.369317
-1.406086
-0.951450
0.529303
-0.343632
1.951716
-1.870820
-0.941608
-1.105306
0.953296
0.668742
0.573523
-0.198436
0.063194
-0.095608
-0.336505
-1.456442
-0.429266
0.459499
-0.361275
-0.754980
0.250865
0.902916
1.989554
1.293835
-1.421907
0.312637
1.066046
-1.681370
0.154337
0.498727
-0.773771
0.430825
-0.047068
-0.740604
-0.765648
-0.410812
-1.022598
-0.407829
0.111998
1.545749
-0.782696
-0.705848
-0.787726
0.399955
0.879007
-0.165046
-0.075686
-0.667185
-0.605872
-0.460157
-0.063087
-1.145193
1.349279
0.559024
-0.441156
0.697389
-0.584742
-0.089566
1.564256
0.968735
0.360444
-0.629656
-0.039896
-0.158418
0.377288
-0.285052
-1.750676
0.150420
-0.813901
-0.204131
-0.258190
-0.257218
-0.262402
-0.454113
1.081933
0.529863
-0.624359
-0.172247
-0.352611
-0.129777
-2.071824
-0.096527
-0.143658
-0.123546
-0.126445
0.997346
-0.253737
-1.105422
0.595987
-1.303558
0.254045
0.859386
-0.097112
0.279285
-0.591142
0.377496
0.127246
1.050354
-1.702271
1.721819
2.144717
0.456288
-1.579583
-1.040320
-1.010132
-0.537057
-1.265737
-1.917891
0.088568
-1.282896
0.923102
1.895829
0.216516
0.228058
0.875640
0.643296
-0.284017
-0.914277
-0.682911
-0.308191
-0.355087
-0.662825
0.963074
0.833486
-0.317487
1.085162
1.675806
-2.507368
0.580666
0.684261
0.197042
-1.523761
-0.659044
1.371603
-0.283630
-0.428829
-1.149825
-0.078699
-2.678300
1.493425
0.548488
-0.999237
-1.412687
0.355918
0.167786
1.282212
-1.072944
0.344949
0.138221
0.528888
-0.069523
-0.071557
0.683910
0.040222
-0.022339
0.126578
0.402551
-1.054038
0.604970
-1.223806
1.193563
0.224080
-1.021875
-0.381489
0.961154
-1.216063
-1.916714
-1.565850
-1.095772
0.066182
-0.759141
-0.838531
-1.723637
-0.157921
1.057552
-0.064398
0.969748
1.238596
1.133232
1.541963
-0.245467
-0.123274
-0.237092
1.449150
-0.694784
0.105813
1.553438
-0.974464
0.920198
0.413652
1.441914
0.564413
2.092032
-0.869751
-0.122045
0.710891
-0.742908
0.192015
-1.811672
1.904379
-1.519933
1.378550
-0.761268
0.752907
0.278606
-0.806532
-1.224131
0.755052
1.371145
1.390248
1.452325
-0.114117
1.880071
0.801445
0.734918
-0.321701
0.061891
0.439769
1.876968
1.517802
-0.835948
-1.441575
-0.078113
-1.429386
-0.894125
-0.872661
0.065564
-0.382305
-1.216389
0.435257
-1.089999
-0.816641
1.267938
-0.218106
0.843918
-1.392302
-0.886118
-0.568571
-0.559081
-2.235583
-0.532339
-0.190158
1.020732
-0.646319
1.192628
0.019776
0.122848
1.146218
1.040768
-0.029058
0.810841
1.082961
0.116388
0.446061
0.797450
-1.200192
-0.978618
2.775510
0.642577
0.957562
-0.227702
-0.877312
0.025996
0.592914
-0.423737
-0.436602
-0.640609
-0.046433
0.309149
0.105443
-1.311260
0.317148
-0.674229
0.145073
-0.401305
0.364605
-0.545302
0.436295
0.756279
0.740262
0.813350
0.464252
-0.473758
-0.752485
-1.341202
-0.514259
0.155997
0.587037
0.272824
-0.352051
1.484297
-0.155304
0.003603
-1.429104
-0.004783
-0.462535
-0.714581
2.561266
-0.636643
-1.387902
-0.422463
0.675602
-0.994309
0.315647
0.768699
-0.633434
0.620662
-1.137327
-1.161831
0.502187
-0.038026
-0.943351
-0.112332
-0.663101
-0.965356
0.104438
-0.604244
2.435261
0.591603
0.416372
-1.615009
0.003486
-0.990156
-0.495898
-0.698590
0.400251
0.080096
-1.003717
-1.119178
-0.167206
-0.604551
0.966388
0.196099
1.232258
0.627327
1.207975
0.684569
1.629821
0.635375
1.472907
-0.835906
-1.093118
0.956672
-0.394414
-1.768361
-0.057879
-0.185402
0.253427
0.259478
0.380041
-0.714333
0.370701
-0.728688
-1.175626
-1.086313
-0.187504
-0.755123
0.239517
2.819841
1.219238
1.645554
-1.160287
1.121678
-0.108930
0.087183
1.294621
0.702641
1.377802
1.055341
-1.467139
-0.050362
0.853190
1.459293
0.069943
1.121924
-1.038352
-0.314805
1.751406
0.812337
-1.262121
-0.968686
-0.791640
-1.294577
-0.985761
-0.171045
0.595694
1.682151
-0.032449
0.632722
0.607049
1.138056
0.980121
1.004891
-0.618457
0.636694
1.833520
-0.316009
-0.009437
-1.427087
-0.085705
-0.808690
0.628206
1.327613
-0.430297
-0.020920
-0.438527
0.693450
-0.987176
0.470295
-0.982035
2.076693
1.650660
0.872437
2.434527
1.523017
1.819480
1.515405
1.786462
0.112732
0.170948
0.758283
1.753594
0.528029
-0.531279
-1.069147
-1.743346
-1.396381
1.618038
0.396381
0.300760
-1.472448
1.091624
1.245193
1.788205
0.613587
1.060319
0.784671
1.463070
1.145233
1.394647
1.040323
1.034011
1.288617
0.929240
0.705836
0.792212
1.836818
1.066852
0.134952
1.449330
1.160839
0.364619
-1.097005
-0.462341
-0.808219
-0.399797
0.217580
-0.887091
0.563169
-0.184613
0.213448
-2.556829
1.635157
-0.623869
-0.255665
-0.669539
0.355550
1.874410
0.728104
1.607115
1.096992
1.762641
-0.815542
0.313183
0.101037
0.815315
1.877742
-1.365903
0.421069
1.185957
-2.040406
-1.320942
-0.649873
-1.080142
-0.422894
-0.570176
-0.445042
1.969183
0.595958
-0.042488
-1.631414
-3.160829
-3.695369
-2.523420
-1.997109
-1.385817
0.274676
0.123738
-0.453112
-1.380328
0.555778
-1.003401
-0.562471
-2.640815
-2.414853
-0.832152
-1.805381
-0.881819
-0.119233
0.475604
-0.448237
-0.025942
-0.099810
1.159478
-0.432672
0.589882
-0.975768
-1.211403
-2.110351
-1.450405
-2.080770
-5.510433
-5.473776
-4.901224
-2.737309
-3.355326
-1.567687
-1.296205
-0.855066
-0.124452
-0.096728
-1.792965
-0.719844
-0.877358
-0.517989
-0.354441
-0.488908
-0.850946
-1.235304
0.996008
-0.363794
0.725935
-0.423449
-1.110507
-0.213739
0.877297
-1.447070
-2.476597
-5.809204
-3.530876
-4.840040
-6.941538
-3.915895
-2.975218
0.407825
-1.709263
-2.339176
-0.257075
-0.486352
-0.376641
-0.087541
0.691702
-0.086015
-0.084607
-0.215525
0.200745
1.098794
0.870242
-2.456075
0.201785
0.612037
1.987965
1.113683
-1.672188
-0.339446
-0.868803
-2.348749
-0.155085
-1.301838
-1.978653
-2.462428
-1.119825
-0.989917
0.332743
-1.681615
-0.467969
-1.728406
-1.620003
-0.807018
0.189408
-0.468726
-2.128316
-1.192052
-1.484456
-1.983591
-0.726968
0.744367
0.471433
-4.279855
-0.738693
1.543083
0.002612
-0.487310
0.037912
-0.683227
-1.125973
1.370207
-0.092667
-0.974215
0.502653
-1.998364
-1.352158
-0.666938
-0.868110
-2.265930
-0.038194
0.522619
-1.995512
-1.388555
-1.324113
1.993021
-1.758357
-0.645225
0.684782
0.345015
1.526459
0.616568
0.704055
0.571190
-0.621207
0.283804
0.686553
2.073736
1.862671
0.553680
1.181933
0.771402
0.296842
-0.751872
0.033859
0.841252
-0.900125
0.253244
-2.047491
-2.672207
-2.038111
-0.729014
-1.283376
1.306200
-0.898812
1.889476
-0.884061
0.354227
-1.583741
-0.632452
-0.114234
-0.684828
-0.102778
3.129261
1.239517
1.483277
0.990370
0.501467
0.095208
0.183547
-1.168391
0.664292
-1.523616
-0.508737
-1.446062
-1.058765
-0.987629
-1.677294
-1.224392
-0.910872
1.778737
0.024803
1.428906
-0.595561
-1.164138
1.216382
-1.242371
-1.387199
0.527830
-0.752594
0.459004
2.802500
1.744230
1.485367
0.834136
0.874427
-0.883594
-0.138046
-0.867264
-0.296701
-1.671564
-3.085334
-1.376529
-0.070356
-1.103802
-1.364998
-0.025726
-0.579468
0.986491
1.170931
-1.097133
0.034180
0.934698
0.795695
1.120362
0.924044
-1.016738
-0.714578
1.449345
0.619704
0.675030
0.251345
1.815867
1.491230
0.562256
-0.118820
1.526112
-1.191312
2.243851
-0.101475
0.664697
-0.916036
0.495024
-1.842987
0.005182
1.108795
0.582069
0.059904
0.634789
-0.351812
-2.847866
-0.909695
-0.709788
-0.430322
0.397822
-0.868671
-1.726199
-1.115333
0.216149
0.067918
1.036646
-0.212737
-0.352750
1.022534
1.419502
1.185208
1.490541
0.519263
-1.396199
1.445933
1.881752
-0.861306
-0.591448
-0.081402
1.074388
1.235294
-0.030104
1.229510
-0.581020
0.300650
0.132006
0.869326
0.554584
0.900767
0.050583
0.620292
-1.651912
-1.541422
1.393441
0.847803
-1.291955
1.963909
-0.031192
-0.777996
-0.496822
-1.930004
-0.036188
-0.731643
0.436343
0.359862
0.231441
-0.677886
0.790918
-0.486252
0.632080
1.375134
0.031885
0.767881
-0.187864
-1.128602
1.211085
0.559872
0.999696
-1.712982
-1.673422
0.594249
-0.960339
0.314110
1.522567
1.086754
-0.325371
-0.771980
-1.135025
0.502637
-0.852041
0.315420
-1.109228
1.431838
0.323137
-0.602592
-1.417132
-0.648615
-1.433483
0.892871
-0.785158
-0.245726
-1.165829
-0.762442
-0.154345
-1.399227
-0.295899
-1.879398
-0.791514
-0.750287
1.046524
-0.396802
0.513297
0.019841
-0.317510
0.611344
0.101213
-0.879326
0.257001
0.930231
0.485675
0.975159
0.282968
-1.309590
-0.367973
-0.697850
1.765460
0.875482
0.963640
0.647936
0.063563
0.956966
1.700100
-1.217358
1.059460
-0.655933
0.316379
0.828979
0.317368
-0.397673
-0.104985
0.827660
0.810867
-0.310643
0.631116
0.657183
-0.257423
0.767476
-0.717993
0.119433
-1.337214
-0.145885
1.260036
-0.280030
-0.335493
1.649594
-0.176875
0.584957
0.132107
-0.017617
-2.385324
-0.413959
1.025154
0.491526
0.350145
1.268015
-0.237214
1.485958
1.331541
1.002761
-0.625112
0.549471
1.116203
1.092640
-0.226253
-0.616205
-0.760506
1.175394
-0.944329
-0.293807
1.724614
0.444669
-0.021106
0.094271
-0.818184
1.014396
0.964654
-0.895818
0.219677
0.656850
-0.407602
-0.297584
0.196382
-0.895538
0.561314
1.532784
0.964063
-1.268932
-0.226145
-1.894479
0.432409
0.438332
0.476531
0.751857
-1.031875
-2.735693
1.090782
0.114371
-1.072729
1.424272
1.522721
-0.130577
-0.592765
-0.381027
1.428036
2.381639
1.794035
-0.116768
-1.157510
-1.295332
-1.563176
-0.397609
0.415722
0.409291
0.628636
0.129340
0.337606
0.650070
-0.786353
0.673835
0.707749
0.251512
-0.588142
1.529006
1.397639
2.113417
-2.244514
-0.034803
-0.538597
-1.403098
0.600231
1.119613
-0.677088
-0.287022
1.249211
0.276475
-0.123524
-0.432325
0.041176
0.269618
0.278042
1.405344
0.224062
-0.095411
-0.502548
-1.485216
2.728893
-0.111832
-0.515816
-0.837671
0.318354
-0.338688
0.962653
0.188673
0.871668
1.246007
-1.630973
-1.101307
1.850790
0.964419
-0.213334
-0.952069
-2.206624
-2.087658
1.364972
1.746571
-0.483485
-0.028322
1.129510
0.412053
-1.922670
0.851300
-0.916912
0.700096
-0.363298
1.051389
-0.025603
-0.101665
-0.947837
1.428981
0.113067
0.960684
1.054399
1.606985
-0.529464
-0.569376
1.242887
-1.313123
0.949418
-0.266173
-0.854110
-0.621768
-1.455255
-0.223421
1.640841
-2.026832
1.476474
1.302922
0.287430
-1.281420
1.314572
-0.202395
1.369421
-0.552707
-0.553732
-0.911976
-0.742351
0.483840
0.077368
0.946745
-0.050407
0.463105
-0.084943
0.758162
-0.089151
0.888577
-0.491936
1.243448
-0.015682
-3.927462
-0.957710
-0.218078
-0.513281
-0.201720
-1.228511
0.428015
-0.242836
0.210412
-1.128534
-0.339475
1.305799
-1.143626
1.633677
-0.129373
0.695405
0.046296
0.578227
0.017966
0.099671
0.078877
1.770115
-0.141504
-1.845399
-1.150712
-0.175554
-0.532512
-1.275147
-1.943785
-1.414579
-0.129775
0.674514
1.047106
0.925023
-0.199361
1.252387
1.268864
0.084325
1.487440
0.000069
-1.714721
-0.349377
1.037693
-0.403045
-0.948597
-0.257010
-0.414889
-1.952658
1.604207
2.043391
1.892605
0.691814
-1.821645
-0.096978
-0.013485
-0.553497
1.019894
0.418343
-0.199470
0.843681
2.414400
-1.799662
-1.215677
-0.543272
-0.755266
-0.825190
-0.167641
-2.193379
-1.254717
-2.690136
-3.050598
-0.830242
-1.281027
-0.685256
-2.450232
-1.206223
0.396367
0.998712
0.882499
-0.428503
-0.194684
-0.483949
-1.359879
-0.264211
0.945618
-0.422387
-0.184533
-0.895719
-1.194587
-1.364056
-1.446137
-3.392615
-1.050276
-0.270646
0.128726
-1.674555
-2.051165
-3.047700
-2.646947
-1.109940
-1.794359
0.218959
0.654096
0.233166
0.144133
1.970155
1.598503
1.814142
0.505563
0.873144
0.517783
0.590928
-2.936329
-1.932076
-2.894492
-1.006564
-1.029486
-0.013854
-0.776445
-1.498777
-1.704081
1.468059
1.818838
-0.712030
0.259404
-0.723874
-1.534473
-0.298089
-1.973328
-1.293168
0.183003
0.402193
0.604753
1.614891
-0.523162
-0.686171
-0.797932
0.318258
-0.521293
0.468656
0.958674
-0.391828
-0.232081
-0.510615
0.765870
-1.685622
-0.091553
-0.622875
1.482211
0.708927
1.558562
0.085056
0.791073
-1.729543
-0.820053
-0.555047
-1.417453
-1.982746
-3.303017
-0.184854
1.930926
-0.334821
0.952627
0.758342
-0.914213
0.482953
0.265375
0.127884
0.735368
-1.828530
-0.475094
0.276662
-1.269350
-1.279377
-1.450008
-0.672274
1.766715
0.750022
0.876698
0.084152
0.662297
0.816751
-0.604879
0.790415
-0.848294
-3.485891
-3.505032
-3.920232
-1.104899
0.714375
2.841925
-0.624745
0.326660
-0.524528
-0.334490
0.091148
0.259189
-0.199363
0.313229
0.330263
-0.405104
-1.035272
0.863027
-0.352963
1.110825
2.540786
1.066212
1.937814
0.077062
0.509483
-0.055454
1.514769
1.484324
-2.071406
-0.358874
-0.906338
-1.145664
0.438699
1.211970
0.106970
1.417175
0.562311
0.383183
-0.291357
-0.976957
-0.348167
-0.348571
-0.543613
1.194301
-1.128117
-0.124332
1.420950
-0.271049
1.531083
1.599205
1.653251
0.231927
0.365831
-0.017475
-1.052540
2.480265
-0.812833
1.676736
-1.693849
1.863742
-0.845285
0.687281
0.393415
-0.276933
1.498807
0.544066
-0.276383
0.220497
0.017394
-1.536675
-1.084834
1.088726
-1.323580
-0.806988
-0.840724
0.587827
1.560666
1.206552
-0.594643
1.148425
0.173038
0.593208
0.253734
0.744225
0.382199
0.174251
-0.810751
0.838021
0.659495
0.425713
0.531218
-1.328994
-0.456448
0.043033
-0.361070
0.148370
-0.155244
0.037260
0.981950
0.517337
1.326926
-0.508982
1.946404
-1.874700
0.246230
-0.074964
0.774157
0.773428
0.179201
0.306398
0.986642
2.259566
1.262966
0.227860
1.202349
0.722152
-0.460152
1.201072
0.013572
-0.938911
-1.184350
-0.084974
0.479233
-0.391732
2.530151
-1.124580
-0.395843
0.612860
-0.915672
-1.799815
0.740227
0.745802
-0.536857
-0.709927
1.176150
-0.494197
1.259551
0.812240
0.678240
0.265296
0.432256
0.025095
0.508654
-0.990025
-2.090715
-1.243739
-0.659547
2.137722
2.118139
0.816810
0.619553
-0.952728
1.315525
1.116234
-0.121230
-0.835059
1.508699
1.942315
-0.560625
-2.048973
0.229353
-0.448174
0.887306
0.825988
-0.387116
1.123691
-0.091569
0.826171
0.161799
-1.227708
1.609665
1.622391
0.504754
2.069884
-0.161295
-1.285340
-0.374890
1.527265
0.070785
0.056708
0.422541
0.740112
2.512326
-0.699297
0.072379
-1.411115
0.061657
2.100059
1.681923
0.985101
1.756908
-0.376937
-0.201203
1.918929
1.718345
-1.902057
0.372900
0.652297
0.989864
-0.440446
-0.032095
0.406006
0.187764
0.033264
0.861624
-0.742559
-0.138302
0.930490
-0.081527
0.923389
0.981941
-0.230865
1.176601
0.040333
-0.507726
0.355469
1.726595
-0.403910
-1.600743
0.057925
0.413153
0.304011
-0.229757
0.980960
0.134511
0.352416
-0.678031
-1.271528
1.001733
0.326569
1.366932
0.741534
0.319236
-0.883749
-1.660296
-1.550392
1.012093
-0.497278
-1.143343
-1.120873
-1.861773
0.369806
-3.198849
1.615324
-0.680174
-0.325600
1.579790
-0.472575
-0.770304
-0.632483
1.206712
0.727427
1.511129
0.903479
-0.259154
0.029422
-0.361564
0.148591
-1.911428
2.036943
0.062462
-0.136838
0.309369
0.067325
-0.770556
-1.024990
1.104336
-1.481145
0.068176
-1.084306
0.953576
-1.566098
-1.418095
-1.104033
0.200170
1.324059
-0.054945
0.084193
-0.572120
-0.619493
-0.150563
-0.620538
-1.105414
-0.761088
-0.078955
-0.639604
-0.766821
-0.914849
-0.982838
0.001153
-0.322369
-0.172029
1.166167
-0.753023
0.990051
-0.927603
1.873234
-0.051326
-0.562584
-1.612231
0.775043
-0.763434
-0.626979
-1.189996
-0.902170
-0.017323
0.440173
-2.061511
1.214433
0.367767
0.345182
-1.400551
0.738186
0.210604
-1.723102
0.554535
-0.029501
1.522417
0.169477
0.081706
-0.112112
-2.393555
-0.565808
0.122998
1.246033
1.064643
-3.218074
1.915238
0.509793
0.504413
-0.448497
-0.915767
0.245619
0.636301
-2.075009
-0.738017
-1.171701
2.581212
-0.806037
-0.328091
1.000859
-0.764886
1.081652
-0.765411
0.105636
-0.050030
-0.925402
0.091071
-0.242587
-0.780574
-0.487876
-0.484754
0.110832
-2.489176
0.082798
0.477282
-1.142870
0.759260
0.734448
-2.112136
-0.031576
1.497883
0.023643
0.167077
-1.141867
-0.842929
1.212293
0.561178
-2.231665
0.073202
-1.315257
-2.577023
0.333377
-0.360246
1.588294
0.852442
0.109088
-0.014266
0.460701
-0.202138
0.371519
1.206939
-1.196072
-0.265232
0.059635
1.694442
-0.258075
-0.301991
-1.055291
-0.864405
1.561130
-1.186449
0.906373
0.218140
-1.045602
1.913659
0.838816
0.217295
1.901670
0.728455
-0.933777
-1.059128
-0.669271
-0.064332
0.232860
0.167801
0.481895
-0.697762
-0.807022
-1.192747
-1.485484
-1.400408
0.265264
-2.764759
-0.889860
-0.802532
-0.354136
0.370194
0.537365
0.309712
-0.452849
1.748023
-0.276525
0.079746
-0.572742
-1.422446
0.936852
0.854589
1.113021
-0.738012
-1.606240
1.090633
0.042102
-0.778807
2.285854
-0.442628
-1.442324
-1.527390
-1.469983
-0.365187
-1.197745
0.761498
-1.777286
0.589487
-0.938083
0.073768
-0.165314
0.567857
-0.500417
1.353601
0.375571
0.265617
0.812115
1.508253
-1.178071
-0.481624
0.212435
-1.375354
0.952682
0.222747
-0.431352
-0.267502
0.037466
1.687526
1.832287
-0.191578
-0.339170
0.911593
-0.392303
0.187045
0.032144
-0.230276
0.685399
-0.390081
0.978214
0.856870
0.300400
1.028006
0.795533
0.150938
-0.927012
-0.778705
-0.081486
-0.663848
-0.552696
-0.976295
1.376932
1.159777
-0.179484
1.080004
1.383174
0.542420
1.278753
0.212898
0.092868
-1.599208
-0.798595
0.007410
-0.015027
0.726802
1.575440
-0.341753
3.318500
0.555150
0.153857
-1.003111
-1.410948
0.297952
0.702703
-0.568877
1.210439
-0.099592
-0.195821
1.187644
1.262846
-0.699565
1.138887
0.888753
-1.579160
-1.665197
0.357151
-0.137095
1.759904
1.974103
0.706599
-1.187826
-0.853783
1.610825
0.838619
0.000813
0.516554
1.284838
-2.408828
-0.642679
-1.500183
0.969539
1.400135
0.262589
-2.337807
-1.256183
-0.522004
2.133018
2.560589
-0.410704
0.408843
1.023403
0.592457
0.575473
-2.264761
1.312758
2.495412
1.167307
-0.487123
-0.977606
-0.812350
0.578351
0.833437
-1.179329
-0.978552
-0.482108
-1.937259
-0.373081
-0.175824
0.486496
-1.052378
-0.183389
0.220985
-0.492372
0.313769
1.323510
-1.063634
-0.376649
1.431965
0.751376
0.223869
-2.317369
0.552051
1.586821
3.032074
1.177295
-0.385693
0.361213
1.271952
-1.772990
-1.002726
0.004239
0.836380
-0.422472
0.079114
-1.663569
0.406352
-1.389677
1.420321
-1.188998
-0.012716
-0.764213
0.170337
0.734253
-0.504258
1.975077
0.202773
-0.479910
0.326338
0.361240
2.162728
0.938879
2.490102
-0.695260
0.125400
-1.284028
1.182136
-0.649411
0.480372
0.898726
-1.808330
-1.467945
0.256171
-1.215153
-0.173644
-0.804593
-1.162686
-0.339222
0.259741
-0.491174
-0.716540
-0.740886
-0.036303
-1.046547
-1.746767
1.231839
1.730468
1.375604
0.618630
1.651298
1.172763
-0.495388
-0.930028
0.665979
0.526511
0.647341
0.380820
0.373049
0.716715
-0.653852
-0.787381
-1.126452
0.124719
-0.834418
-0.501432
0.949653
-0.059784
-0.388949
-2.089603
-0.673437
-0.725461
-0.199725
-0.379099
2.788088
-1.082705
-2.101804
-0.247531
-1.133261
0.450453
-0.506526
-0.653011
-0.652652
-0.526498
0.819755
1.441539
2.865749
0.899042
-0.192569
0.990110
-0.852681
0.178927
-1.331783
-0.962090
-0.482880
0.661929
1.288889
-0.546360
0.833830
1.033985
0.056747
1.071677
-1.232406
-0.543101
-0.754202
-0.996050
1.400532
-0.601757
-1.889100
-0.957052
-0.277714
0.538259
0.162248
0.763067
1.494235
1.645876
0.217832
0.320605
0.736968
0.160372
-2.678785
0.388132
2.664001
0.185744
1.949344
1.161207
-0.211999
-1.116914
-1.477860
0.409866
-1.795689
-1.039009
-0.511533
-2.543274
1.613726
-0.777104
-2.995347
-0.652852
-0.867040
0.484448
1.159703
1.578851
1.603936
-0.672830
1.793143
1.727247
0.781557
-1.073836
-0.084114
0.430846
-0.185469
0.392124
0.251824
1.140619
-1.346223
-0.474731
1.204042
0.178827
0.538961
-1.175270
-3.229152
-1.215714
-0.934745
-0.917682
-1.500742
-2.900336
1.959922
-0.270802
-0.062592
1.242619
-0.517266
-1.868707
0.484631
-0.039998
-0.353054
-1.225625
1.745233
-0.571207
2.733188
0.546752
-1.017064
1.578625
0.538350
1.199475
0.733580
-0.861879
0.425895
-1.479431
0.699752
-0.984577
0.388383
-1.772233
-0.452888
-0.593138
0.268855
-0.046327
-2.017948
-0.562338
-1.323471
-0.442581
-0.446610
0.215154
0.356024
0.918708
0.493017
0.935504
0.447159
0.039093
1.041225
1.037557
1.637210
0.882405
-1.023051
2.897526
0.077647
-1.282664
-1.184251
-2.780690
-0.287127
-1.030700
-0.280920
-0.963712
0.244882
-2.708010
0.162585
0.621129
-1.781925
0.500843
1.707121
-0.161097
0.368231
-0.743043
-1.000842
-0.844654
1.207090
0.556715
0.256564
1.112046
0.431568
0.139387
-0.733192
0.748373
0.262244
-1.796044
-2.145186
-1.799646
-0.126381
0.564618
0.716859
1.129496
1.177260
-0.012036
-0.204557
0.016193
-1.500723
1.302440
-0.160242
0.652696
1.417701
-1.048349
-0.135549
0.640282
1.352088
1.653983
-0.318189
-0.355617
1.197590
0.750851
0.778134
1.075709
-0.149473
-1.405909
-1.836393
-0.599774
1.419608
-0.079047
2.141413
1.415862
1.617214
-2.089385
0.948150
-0.521535
-2.261693
1.053181
1.370768
-0.485695
-0.660937
1.328552
-0.226557
1.071462
-0.490608
-1.640709
0.576051
-0.417105
-0.561880
1.586825
0.479863
-0.511936
-0.811075
1.182650
-0.023963
-0.736072
-0.640368
1.447410
-0.326763
0.938985
-0.553854
-0.517754
1.861019
1.081986
-0.937565
1.086957
0.404227
-0.213120
-1.451713
-0.684018
-0.937528
-1.412643
0.557400
-1.038346
0.396741
0.765066
1.245748
-0.731289
1.725665
-0.258638
-0.322270
1.179417
0.125382
0.874683
1.805420
0.385784
-0.244207
0.127688
-0.349545
2.802846
0.624164
-0.234670
-0.560395
0.228381
-0.708953
1.901838
-1.084809
-2.202987
-0.657443
-0.200069
1.202282
-0.112650
-0.280165
0.145421
0.121181
-0.003272
0.365423
-0.140422
-1.013229
-1.641585
0.174961
1.155518
-0.831084
-0.943210
0.182016
-0.392443
-0.291940
0.511740
0.392884
0.284799
1.624482
2.141023
-1.538192
-0.215601
-1.225716
-1.693950
-0.774562
-1.263083
-0.511993
0.953604
-0.829443
0.451760
-0.014598
-0.359395
1.298471
-0.425766
-0.210729
1.129262
0.045594
0.019462
-0.390219
-1.057333
0.474014
0.616963
0.510357
-1.695047
0.275089
0.510491
0.186065
0.801035
1.707151
-0.140049
-0.659362
-1.303863
1.072035
-0.281456
0.015110
0.333764
1.268893
0.552895
-0.428170
1.408669
1.069530
-0.042529
-1.155538
-0.909018
-1.517842
-0.343625
0.126271
0.053913
0.464113
0.319899
0.098036
2.373728
0.723925
2.828344
1.212209
1.495781
-0.414932
1.629176
-0.329584
0.064937
-0.851323
0.327929
-0.473787
-1.080839
0.230103
0.194999
-0.598596
-0.266022
0.959266
0.046112
0.167898
-0.204138
0.265987
1.144071
0.460146
-1.286655
-0.463523
-2.415865
0.030741
-0.602918
0.764780
0.030442
1.345852
-1.345895
0.313804
0.805759
0.220160
-0.263864
-0.097720
0.772249
1.693210
-0.430529
-1.168315
-0.562672
0.549888
-1.104467
1.137901
-1.375107
-1.063432
1.465429
1.341195
0.969407
-0.002184
1.252566
0.685045
-0.048369
0.921134
-0.659915
-0.486510
0.997467
0.359211
0.798549
0.299963
0.252350
0.665977
0.659442
1.472464
0.865409
0.913914
-0.802422
0.583496
-0.649467
-0.661669
0.851603
0.857483
1.923479
0.039120
0.676004
0.780513
-0.267890
0.024858
1.099580
-0.507615
0.802911
0.349205
0.011900
-0.389443
1.154942
0.908255
0.473487
0.033315
-0.238065
2.336401
0.881591
-1.332767
1.456418
-1.687370
0.042891
0.766270
-0.498127
0.407727
0.519577
1.125927
0.308256
1.410114
0.069658
-0.996377
-0.511247
0.151385
-0.113590
0.784243
0.405729
0.433854
-0.143044
0.254225
0.553592
-0.770250
-1.026373
0.068652
-0.736796
-0.848199
1.445606
-0.785324
0.332166
-1.118949
0.820293
0.247277
0.101096
-0.299948
0.623238
-1.606847
1.312796
1.672544
0.260928
0.044550
0.556685
0.029117
0.113424
-0.906290
-1.122154
0.205991
0.862016
-1.005950
-0.388245
1.146618
-0.923960
-0.695908
-1.011609
-1.282087
1.198672
-0.474572
0.299239
-0.355356
-0.401315
0.812500
0.496623
0.273981
-0.860645
1.702530
-1.499589
-0.845204
1.202170
-1.046932
0.940789
1.403003
1.687968
-0.527323
-1.074403
-0.313063
-1.146227
0.912209
-0.362153
1.397584
0.037046
0.557494
0.861199
0.788996
-1.489265
-0.448924
-0.391107
0.371181
0.356100
-0.380890
1.868215
0.979932
2.911014
-0.005944
-1.022382
-0.250691
0.630058
-0.544841
1.916477
0.731696
0.747890
1.577112
0.064163
0.598721
0.273207
-0.069231
-0.320761
1.305745
-0.107450
-1.116661
-0.328641
0.013771
-0.542189
0.971354
1.057387
-0.486313
0.121605
-1.100366
1.000859
-0.764366
1.226045
-0.112396
-1.528054
0.193852
-1.141439
-0.946123
-1.745900
-1.195253
0.326488
-1.365918
0.500949
0.522030
0.541543
-0.446463
0.933517
-1.714934
-0.072699
-0.911322
1.774588
-0.767202
0.173689
-0.387642
0.130584
1.661187
-0.598951
-2.449548
1.237603
0.466725
0.637876
0.446601
0.226506
-0.302347
1.109320
-0.906814
-0.553736
-0.636715
0.007715
0.369590
-0.413445
0.100332
-0.210078
0.131195
-0.763794
-0.544996
-0.925306
0.294702
1.492098
-0.965430
1.127959
-1.248041
2.262541
1.019221
-1.385366
-0.020925
-0.685151
-1.139012
0.756187
-0.979374
-0.098335
-1.804448
1.004247
0.757841
-0.829695
-0.045454
0.077116
-0.098451
-0.375668
-1.845747
-1.090643
-0.704626
0.327453
-0.271519
2.416703
0.340003
0.697433
-0.822947
0.431933
-0.903990
-1.256935
-0.345446
0.436114
-0.152156
1.815516
-0.619702
2.136569
-0.389417
0.516824
-0.295035
-0.502917
0.353368
-0.795525
-0.774989
0.088116
-0.365048
0.213244
-0.529847
-0.349612
1.253800
1.258492
2.351150
0.236976
0.584154
0.568820
-1.079991
0.498370
0.238619
0.407887
-0.242923
-1.946076
0.553131
0.511721
0.027066
0.104166
0.439662
2.465668
-1.997724
0.081216
1.028315
-0.829209
-0.385619
-0.882087
-2.720656
0.417128
0.783703
1.334838
2.146422
-2.137570
0.078190
-0.552660
0.867946
-0.993646
0.291359
-0.626404
-0.338879
2.585202
0.454038
1.004902
0.069585
0.416056
-0.526029
-0.959802
1.141689
0.168401
-0.567837
-0.217539
0.085505
-1.085630
-1.131440
0.372037
0.870116
-0.252842
1.158383
2.643998
0.863956
0.889866
-1.975871
-1.210104
-1.706040
-0.818461
2.266340
-0.903359
-0.049109
-0.394312
1.780683
0.207370
2.134849
-0.469284
0.211822
-0.079155
-0.340409
1.622440
1.121241
1.349865
-1.816291
-0.435135
-0.608171
0.443448
-0.493169
-0.715947
-1.370026
-0.170855
-0.089968
0.879071
0.275754
-0.311902
0.546232
0.097692
1.541970
-0.612968
0.874375
0.005274
0.833988
-0.142466
0.355922
0.334501
0.483713
-0.063954
-0.765193
-0.709173
-0.288219
-1.063880
-2.691552
0.444523
-1.480795
0.226702
0.426081
-1.779085
-3.872617
-1.828202
-1.911654
0.174475
-1.241109
1.180924
2.357093
-1.116546
-1.108984
-0.527927
0.277469
0.711559
2.405976
-0.237916
-0.441075
0.169667
0.192919
-1.900513
-1.251454
1.013651
1.144812
1.343022
-0.461889
0.126582
0.055691
-1.475933
-0.994000
-1.101510
-1.470852
0.822124
0.391517
0.883927
2.354899
0.711606
-0.014359
0.318905
0.939887
0.257916
-0.694274
-0.516874
1.850733
0.018137
-0.005815
0.632682
0.687676
-1.986288
1.743631
-1.093413
-0.699769
-1.155352
-0.652760
0.230180
-1.956952
-2.475772
-1.065177
-0.269507
1.249950
2.942816
1.183148
1.115382
1.084803
1.056314
-0.221437
-0.837634
0.117938
-0.357958
0.692084
-1.145450
-0.451435
0.377548
0.219296
0.897111
-1.179515
1.334187
-0.362812
-0.238919
-0.098675
-2.211061
-1.421489
0.452556
-1.382487
0.398414
-2.125636
-0.618353
-0.115379
0.496295
-1.475915
0.035345
-0.078418
0.293685
-0.185224
-0.915719
-1.645961
-1.594296
-0.258580
0.742758
-0.163557
0.684002
1.693248
-1.313396
-0.325637
0.880961
0.622045
-0.732697
-0.345933
-1.935624
0.646734
-0.050056
-1.065464
-1.290633
-0.571464
-2.099627
1.316631
0.397427
1.032012
-0.965594
0.830194
-1.220227
-1.424722
-0.251849
-0.509146
-1.190559
-0.709405
-0.673826
-0.203097
-1.343400
1.926177
-1.329480
0.151702
1.099491
-2.134652
-0.084480
0.615775
1.324461
0.603076
1.107663
-0.444009
1.080352
0.171895
0.497195
-1.084289
0.219637
-1.256018
-1.848113
-0.524550
-1.428627
-1.563502
-1.161403
-0.983035
-0.958175
0.155739
-1.283111
0.284729
-1.061023
-0.495734
-0.451042
0.215729
-0.064618
-0.586220
0.886204
-0.236813
0.857870
0.318628
1.666448
-0.232601
-1.103126
0.933737
0.530884
1.178978
-0.133451
-0.542448
-0.192406
-0.148394
-0.702668
-1.332238
0.023142
-1.984167
-0.281069
0.872719
0.843199
0.010682
1.698819
-1.222978
0.625127
-0.961532
0.830234
1.708956
2.092866
0.791380
-0.521127
-0.497939
0.221052
-0.328811
-1.038278
-0.672183
0.687365
0.596911
0.312824
0.242528
-0.586599
-1.001669
-0.035684
-1.138638
0.038314
-0.415608
-2.317498
-1.127148
-0.259229
-0.271971
-0.371043
-0.040574
0.818107
-1.857420
-0.756639
0.074769
0.286572
0.587713
0.271393
-0.442676
-0.681609
0.321840
1.798140
-0.545736
0.165873
1.697156
2.311348
1.122193
-1.288257
1.578214
0.775097
-0.252472
-2.081536
-0.850047
-0.207082
-1.700134
0.016122
-0.634671
-0.197980
0.019746
-0.410257
-1.429862
-0.204130
0.409895
2.017756
1.336486
1.334490
-0.358313
-0.159898
0.007162
-0.280254
-0.651556
0.141879
0.967829
1.126087
2.464381
1.582467
1.052753
-1.948666
-0.106997
-1.614244
0.496933
0.527819
-0.829803
0.007045
-0.163909
0.825970
-0.554212
0.564725
-0.679989
-1.012677
0.110093
1.003407
0.453937
0.701016
-0.155678
-2.179734
0.358823
1.523944
-3.063289
-0.651870
0.375358
-0.405502
0.625551
-0.537368
0.044898
-3.081074
0.294752
-1.133512
-0.311235
2.612200
-0.942178
-0.356087
-0.050366
1.100707
-0.322301
-0.055568
0.236456
0.878212
0.642375
0.299374
-0.860741
1.072023
-1.241621
-0.241144
-0.937957
-2.385336
-0.820808
-1.889799
-2.283577
2.143919
-0.701075
-0.746126
0.618453
-2.077509
0.084198
-1.594587
0.887749
0.372287
0.752777
-0.288842
0.389386
-0.936370
-1.561661
-1.354761
0.377080
0.675154
2.312783
1.540216
-0.786775
1.157599
1.493202
-0.065955
-0.105971
-0.939350
-0.155482
-1.209964
-1.440227
-1.360772
0.034326
-1.834077
-3.172123
-0.685421
-0.304606
0.330616
-0.972334
-1.137665
-0.854216
0.025245
-0.467300
1.760675
0.268622
0.113585
-0.289602
0.406478
0.954932
-1.882591
0.184191
-1.695873
-0.707263
1.139174
1.291556
0.911535
-0.668488
-0.404274
1.413209
-0.777008
0.880595
-0.725968
-1.255876
-1.152384
-1.430551
0.311579
1.095183
-1.665381
0.260156
0.314929
0.161282
1.615000
-0.172192
-0.828970
-0.920937
0.359272
1.916239
0.904497
-0.502348
-0.595137
-1.159624
-0.179940
-0.782708
0.261527
-0.534652
0.134374
-0.912690
-0.599432
0.380231
-0.307247
-0.935260
0.094445
-1.352631
-0.932779
0.893043
-0.552952
0.590652
1.315079
0.181340
-0.016544
-0.865871
-0.061933
1.632136
-0.321390
-0.408767
0.965337
-1.105368
0.665319
-0.014980
0.563152
0.996490
0.343315
-0.257292
0.323149
-2.025992
0.251747
1.375249
0.536919
0.330237
-1.081272
1.045250
1.238792
-1.403227
1.054895
-1.430982
3.466364
0.179821
-1.297935
0.135665
0.342324
0.219427
0.363353
-0.787330
-2.171506
-0.732492
-0.065506
-0.402667
-1.661299
1.195395
0.658171
0.417998
0.400007
-2.309773
2.833594
0.526851
0.843398
-0.420666
1.299817
0.436036
-0.518915
0.795452
0.279069
-0.250020
0.238670
0.997723
-0.708164
-0.704032
0.360671
0.562344
1.064890
-1.287174
-0.227184
0.323273
-0.809088
0.110316
0.286244
-1.185088
1.431135
-0.731347
0.518408
0.133181
-1.300543
1.736588
-0.564720
-1.358381
-0.145494
-0.637730
0.854836
1.074764
-0.911292
0.825982
0.836389
-1.100481
0.223266
-0.193231
-0.781695
-0.625529
-0.528475
-0.771818
0.909092
-0.198672
-1.521467
-0.851410
0.994039
0.046337
1.538626
0.766060
0.655189
0.878789
-0.337829
-0.279752
0.606459
1.171877
0.405156
-0.965895
1.412463
1.155165
0.393389
2.430468
-0.222563
-0.453951
-0.855284
-2.404855
0.730022
1.022622
2.832788
0.277613
0.967422
0.956727
0.357231
-0.302680
-0.528020
-0.049936
1.799994
0.447791
0.025179
0.013350
0.669838
-3.090381
0.584109
1.277941
0.526701
-0.696796
-0.454147
-0.880748
0.702480
0.978788
0.580297
1.055925
0.541338
0.176264
1.319763
0.943901
0.397741
-1.398536
1.691778
0.563026
2.134419
1.792235
-0.672222
0.327027
-1.443282
0.886823
0.553496
0.872239
0.836706
0.086708
0.754016
0.185089
0.078405
0.253450
-0.719505
-1.304507
-1.607469
0.929856
0.948383
0.737368
-1.538271
0.041811
-0.435257
1.388517
0.210440
0.955648
-1.238515
-0.363348
-0.612936
0.588402
0.397156
0.954900
-0.431227
2.214046
1.534469
0.176646
0.085428
-1.684946
-1.590032
1.161442
0.257141
-0.643591
-1.025364
-0.753633
-1.021695
1.077933
0.069330
1.629903
-0.344410
-1.368100
-0.208093
0.437887
0.330342
-1.992199
-0.765433
0.067217
0.192345
-0.131001
1.664638
0.816661
2.405935
1.859158
3.358895
1.325318
0.561137
0.816680
-1.424502
-1.051526
-0.545531
-0.554902
-0.834268
0.043617
0.176381
0.265402
0.418790
-0.124659
-1.154409
0.369274
-0.004025
-1.495401
1.088563
-0.164846
-0.209924
1.538096
1.808236
1.312270
0.388521
0.084033
-1.111220
-0.305149
1.666953
-0.492516
-0.142616
1.344144
-0.095668
0.463651
-1.818193
-2.186198
1.414401
-0.772992
-0.990721
-0.416006
-1.630955
1.167665
-1.481377
0.434434
-0.417069
0.687819
1.459786
-0.320362
-0.115201
0.965589
0.056733
0.934090
0.449807
-0.535869
0.899853
-0.751408
-1.126749
-1.303253
2.347483
0.658513
-0.929815
-1.868815
0.691415
-1.192266
0.276018
-1.648309
-0.583670
0.524899
-1.377192
-1.093328
-0.698644
1.554823
-0.358198
1.208924
-0.908652
2.043942
0.472940
-0.113253
0.962540
-0.285768
-0.951195
0.140561
1.838182
-0.787105
1.670990
0.132757
1.416689
-0.297207
0.887832
0.938951
-1.850035
0.516807
-1.849059
-1.797558
-1.760504
0.573990
-0.808241
0.826462
3.023740
2.233083
-0.573330
-0.311656
0.790210
0.454349
1.698312
1.714171
0.611724
0.509928
1.937244
0.488459
1.174109
-1.689102
-1.215346
0.480063
1.295208
-0.850152
-0.876935
2.153212
0.684354
-0.172601
-0.686634
-2.303031
-1.358391
-0.123734
-0.595161
-0.087295
-0.203730
-1.024484
0.007527
-1.413509
0.361014
-0.817334
2.097471
1.016620
-0.322706
-0.502656
-1.938542
-2.125842
-2.257897
-4.450042
-2.490538
-1.558506
0.424341
1.040133
0.345532
2.425636
0.335150
-1.266768
-2.275268
-2.628540
-0.479603
0.103453
-1.184804
0.900928
-0.887492
-1.362858
0.287175
-0.476414
-1.494573
0.944543
-0.574614
-1.134976
-2.602145
-2.087304
-5.615252
-3.101766
-3.385475
-1.108628
-1.177064
1.234622
2.467090
-1.206614
2.401390
0.565196
-0.597318
-0.786236
0.676372
-1.344441
0.544611
-1.861856
0.931418
-0.622079
0.624200
-0.146110
0.331863
-1.408351
-0.213919
0.532394
-0.709812
-1.872931
-2.799124
-2.899556
-2.676067
-1.775899
-0.208244
-0.864090
2.742776
1.221960
0.720869
-0.320849
-1.579874
-1.527990
0.215398
-1.462440
-2.393631
-1.718800
-1.010192
-0.683684
1.391592
0.499533
-1.954162
0.950930
0.502952
-0.235543
-1.451308
2.212621
-0.671683
-2.427196
-0.084355
-1.559912
-1.414184
0.289805
1.625158
1.830104
0.289694
1.315150
0.237589
-0.091880
-0.555522
-0.558501
-0.058100
-1.614318
-0.557846
-0.580977
-0.100398
-0.036235
-1.364773
0.117401
-0.063707
1.376994
-0.933916
0.038253
0.416804
-1.254511
0.246529
-1.615226
-0.907044
-0.164175
0.742189
-0.107458
1.154338
1.466956
0.958347
0.101399
1.127277
-0.528566
-1.422224
0.199797
-0.246653
-0.610364
0.415856
-0.259171
-0.103638
0.723865
-0.996405
0.796359
1.051820
-1.036882
1.817662
-0.663773
-0.068230
-0.737329
-1.099611
1.133439
-0.007979
-0.845867
2.099386
0.469977
0.549420
0.595949
-1.394952
-0.821372
-0.735740
-1.922937
-1.435674
-0.618607
-1.514763
-1.547586
-1.279455
0.062169
-0.635474
-0.774998
0.917600
-1.736645
-0.539968
-0.270717
0.652343
0.291212
-0.483492
-0.136216
-0.217587
-1.407249
1.147448
-0.662842
0.340831
0.723823
-1.141597
-0.872098
-1.272236
-0.588144
1.001849
2.875971
-1.110521
0.933704
0.336325
1.458689
-0.905446
0.491241
-0.006082
0.119274
0.184030
0.148939
-0.819467
0.194478
-0.096868
1.216740
1.941509
0.465764
-0.523620
-0.014534
-0.039484
-0.074915
-0.302663
-1.582446
-1.078214
-2.444820
-0.788410
1.400654
-1.654544
-0.022515
1.738351
0.106777
-0.284921
0.120045
0.369312
1.607046
2.283798
0.753602
0.105900
0.215469
0.302945
0.889011
0.229149
-0.709140
0.137911
-0.918427
0.210520
0.290465
-2.004979
-1.310418
-1.630750
-0.683329
-1.592043
-1.279345
-3.656565
-1.918405
-0.061052
-2.381208
-0.896264
-0.951999
1.231080
0.811398
1.124375
0.992391
0.442157
-0.624191
-0.500926
1.978681
-0.257831
0.713344
1.113477
-0.327149
0.428833
0.302669
2.108629
-0.633698
0.465246
0.050040
-1.258209
-1.695586
-1.253757
-1.493482
0.430110
-2.002144
-2.203799
-0.733392
0.166726
0.463744
-0.447862
-0.283777
1.299457
0.809073
0.954498
-0.833073
2.135040
0.784986
-0.881129
0.563292
-3.445142
-0.325149
0.221060
-0.548531
1.374943
-0.815780
-1.546365
-0.626064
-0.483189
-2.284747
1.182544
0.171712
-0.991345
-0.261767
-2.473253
0.695180
0.236685
0.509411
1.189195
0.741226
2.362833
1.408102
0.777387
0.541419
-1.715335
0.699955
-2.097858
-0.350817
2.550581
1.050114
-0.128938
0.219864
-1.309506
0.963778
0.972059
0.292208
0.519053
2.060392
0.851995
0.895823
-0.124281
-0.961881
0.306453
-0.962808
1.351818
0.298192
-0.207058
1.244694
0.003519
1.660832
1.493840
0.926983
-1.505875
0.761447
0.507591
-1.483671
-0.923832
0.704337
-2.273541
0.109553
0.065806
-1.831960
-0.196866
-0.024459
-1.256229
-0.321934
-1.080826
0.004100
-0.084966
0.780071
-0.381674
-0.854100
-1.831345
0.969000
-0.153467
0.053676
-3.109512
-0.537196
-0.617292
0.940078
0.262316
1.128579
-0.764771
-0.040200
-0.542142
-0.807088
0.201499
-1.087018
0.679833
-2.037744
2.084451
0.431223
-0.030448
-0.164882
-0.953140
-0.796531
2.089879
0.075764
0.105631
0.285791
-0.639567
0.042911
-1.480695
-0.434402
-0.707141
-1.107153
0.695670
1.148181
0.557498
-1.286299
-0.120792
-0.914891
0.041259
0.836810
0.213335
1.187742
-1.441672
-0.555052
-0.275915
0.244798
1.088886
0.208165
1.015329
-0.395237
-0.809157
1.059820
-1.685572
0.635581
1.422387
-1.702208
0.580201
-1.278621
-0.168628
-0.768206
-1.166239
0.961167
1.066670
-0.800309
0.820134
0.962887
0.774188
-0.286575
0.914833
1.743418
-2.394456
0.833178
-1.734444
0.783993
-0.784689
-1.216747
1.273079
0.545767
1.224831
0.832915
1.906506
0.800802
0.196954
-1.172321
-0.784796
0.265782
-1.616261
-0.215396
0.698457
0.179474
-2.231833
0.685787
0.810613
-1.232916
-0.489867
-0.643357
-0.294716
-2.387034
-0.781205
-0.669983
0.827586
1.202102
1.285556
-0.085191
0.192010
0.412016
1.288563
0.377680
0.972682
0.621872
-0.516645
-1.400706
-0.483476
0.794887
1.096416
0.629404
0.619218
0.290277
0.708929
-0.731683
-0.710686
0.165814
0.967750
1.118355
0.847672
0.616062
1.101680
-0.582393
-0.593466
1.220476
-0.697630
-2.093803
-0.388203
0.216292
-0.336482
0.360597
-1.172880
1.471450
-0.835252
-0.119629
-0.866348
1.764611
0.145815
0.443332
-0.215212
-0.311744
-1.007166
-0.044109
1.812778
-0.373261
0.933232
-0.281485
-2.709212
-0.685249
-0.377542
0.454875
0.378172
-1.020250
-0.799434
-2.569642
1.687964
0.468576
-1.238993
0.557960
0.596953
-0.362968
-1.976137
0.192663
0.162972
-0.853814
0.139960
0.304931
-1.064951
-1.163984
-0.018480
0.932262
0.818976
0.873107
-1.059355
-0.998650
0.038247
-1.506293
-0.195020
1.596789
0.156029
-1.145942
-1.386240
-0.212505
-0.569337
0.364882
-1.441526
0.071438
1.498072
-0.229527
-1.302140
-1.051443
-0.695283
1.011086
-0.756684
0.451023
-1.650704
-0.607942
0.844875
0.984088
0.820958
-0.594341
1.272403
0.573770
1.578209
0.533500
-1.205943
0.289988
-0.053587
0.847155
-1.206097
0.302419
0.172506
1.632093
0.662766
0.449860
-0.240024
0.243011
0.269624
0.939119
-0.604429
0.741392
0.840430
0.194271
-0.563122
-1.244353
-0.702782
1.000129
0.539032
-1.614104
-0.430931
-1.539806
2.260676
-1.833001
-0.719683
-0.881378
0.426860
-1.676753
-0.702329
0.129132
-0.697690
0.026188
0.203562
-1.594613
-0.360528
1.075046
-0.875444
0.233825
-0.656099
-0.024120
-0.776652
0.928618
2.252239
-0.857772
0.742246
-0.138350
0.240263
-1.647261
0.024539
0.400067
-0.191784
1.621403
-0.964338
0.292978
-1.164335
-0.642317
-2.215020
-1.014080
0.051604
-0.323733
0.714563
-0.057919
-1.237877
-0.266355
-1.407760
0.517974
1.863014
-1.005797
1.077249
0.964287
0.244291
0.922467
0.371678
-1.179112
0.088418
1.574703
2.641368
-0.893396
-0.172068
1.098540
-1.061230
-0.017960
-1.599520
0.855923
-1.190920
-0.460615
0.526970
-0.003829
1.266720
1.066470
-0.740732
2.246263
0.370611
0.461128
0.703462
0.631985
1.579137
-0.034216
-0.313254
-0.024099
-1.321124
-1.360115
-2.048098
2.029995
0.156762
0.814307
-1.023130
-2.029957
-1.222711
1.329836
-0.672196
-0.059117
-0.897376
-1.189994
-0.347490
-0.959332
1.486861
0.229997
-0.029106
-0.091869
-0.041167
1.347222
-0.196843
-0.988438
-0.134727
0.509988
-0.290715
0.057332
-1.103211
-1.825512
-0.785677
-1.374436
0.624116
0.026805
-1.694446
-0.530300
0.114010
1.285681
-2.190271
0.810827
0.098717
-0.439075
1.383909
-0.103079
0.040267
0.955169
0.854837
0.065096
-0.822889
0.383838
0.808145
-0.157398
1.522372
-1.062011
-2.521206
-0.762724
-1.145479
-1.385201
0.128956
0.252176
0.332555
0.528071
0.287434
-1.013243
0.305642
-1.747587
-2.154598
-2.180330
-0.910040
-0.992002
-1.364731
0.868548
1.148594
1.293326
1.415907
-1.249918
0.798642
0.515364
-0.503452
1.146654
0.471446
0.066765
1.363125
-1.252559
-0.779183
1.121313
0.497773
-0.486627
-1.167539
2.266629
-0.582784
0.370709
0.616198
-0.658746
-0.459820
0.839188
-1.712893
-3.354248
0.227586
1.354433
-0.445601
-0.974614
1.474060
1.182198
-1.284884
-1.020215
-0.045164
0.447314
0.791053
1.187783
0.467691
1.623757
-0.243052
0.136545
-0.363141
-1.851741
-0.269654
-0.308823
0.671566
-0.707373
-0.631969
0.819164
-1.416422
-0.547417
-2.029666
-1.291122
-0.146536
0.399643
1.571803
-0.313597
-0.555663
0.362369
-0.136481
-0.425703
-1.637630
-1.104787
-0.108507
-1.694720
0.358375
-2.034633
-1.177971
1.100620
0.734258
1.270106
0.129340
0.352922
-1.185064
0.401669
0.741003
-0.532602
-0.014817
-0.776999
1.060649
0.369258
1.278142
1.467177
0.444316
1.522339
0.435005
1.571523
-1.364306
0.567464
0.180845
-0.671750
-0.682848
-0.976685
-2.391549
0.271074
0.133840
0.752582
1.871819
0.546235
0.136459
-0.382201
0.731439
0.909226
-0.272207
0.738743
-0.439000
-0.649766
0.529392
-2.293056
2.070477
0.393580
0.934949
0.061234
1.036670
0.573314
-0.797767
0.143040
1.621456
1.185956
0.614408
0.561792
0.120338
-1.018425
0.073990
0.137088
-0.824413
0.053114
-0.158644
0.832959
0.250659
-1.484999
0.795766
-1.668614
-2.593147
-0.903592
1.718864
-0.029329
0.617826
2.934506
0.745118
1.197567
0.691010
1.272074
0.615288
0.281930
-0.191804
-0.831707
0.430043
-1.506240
-1.092464
1.759866
-0.137894
-1.904120
-1.243798
0.281057
-0.276080
0.920100
1.510552
0.560439
-1.533099
-1.139656
-0.621163
-3.607532
-1.650989
0.577358
1.576120
1.777085
2.614365
-0.962266
-0.007410
0.163622
-0.248790
-0.402214
0.211559
0.162960
0.927277
-0.064088
-0.255598
-0.044459
0.767147
-0.665106
1.194783
-1.687082
0.878888
-1.134602
-1.127218
-1.348749
0.611779
0.053560
-2.023209
0.424575
-0.824192
-2.481081
1.274298
1.480119
1.286212
-0.159099
-0.088035
0.590481
-1.136882
1.235377
1.712892
1.137345
0.625039
-1.765800
0.292466
-0.297319
1.144960
0.617825
-0.965222
-1.047357
0.735365
0.000511
-0.807340
0.650312
-0.627009
0.206481
-1.161917
-1.396333
0.804630
-2.059065
1.953523
0.267158
1.197496
2.128331
1.458484
0.233088
-1.185290
-0.748094
-2.052783
0.416795
0.688582
-0.175367
-0.996626
0.403057
-0.245688
1.462539
-0.913368
0.559605
-0.738058
-0.172841
-1.158111
-0.368969
-0.981270
0.349208
0.709245
-0.676494
0.031799
-0.647471
-0.188528
-1.007242
-0.346386
-0.592776
0.282773
-0.666464
2.617808
0.109437
1.372382
0.932658
-0.458939
-2.266976
-1.427041
0.241547
1.634677
-0.615422
0.748306
0.153527
0.406681
-0.434909
1.294738
-1.279671
1.408300
-0.960422
-0.008335
-1.254682
-0.706726
1.284541
-0.647371
0.019698
0.223843
1.081658
0.375724
-0.372992
0.650264
0.793683
-0.625194
-1.274387
-0.568540
0.308610
0.728436
-0.560909
0.026240
-0.295137
0.430057
-0.162658
1.202609
-1.103739
-2.826310
-0.783408
-0.044387
0.494579
-2.333057
0.353898
0.814282
-1.405224
-0.328145
0.471535
1.317685
0.424907
0.087549
1.301301
-0.899815
1.781969
-1.076611
1.116898
-1.160836
-2.760156
-0.496364
-0.689635
-0.104954
-0.960947
0.479685
1.543912
1.508203
-1.434799
1.620116
0.309266
0.049707
0.340069
2.910675
1.424957
2.115107
-1.091398
0.822740
-0.499997
0.467670
0.640819
-0.351745
0.653212
1.158203
0.806096
0.072096
0.003121
-0.717584
0.138547
0.165054
-0.843283
-0.300519
-1.719284
0.948154
0.604390
0.226981
-0.323288
-0.134146
0.310484
0.943962
-0.581752
1.055869
-0.761072
-0.935423
0.093480
0.799115
-0.304144
0.118366
0.689778
0.785690
1.102511
0.169921
0.454891
-0.864648
-1.813967
0.196863
-0.955208
-0.107952
0.121179
-0.069449
-0.115504
1.105625
1.191461
-0.619720
2.658735
1.296219
-0.155672
0.632034
0.594321
-0.619313
-0.369813
-0.641295
-0.852113
0.105395
0.450695
-0.435650
0.627235
-1.358179
0.711427
0.790924
0.666297
0.919991
0.131142
-0.304041
-1.179802
1.684229
1.402016
-0.911434
0.566787
0.479407
-1.181058
0.630863
-0.198656
0.589016
-0.272156
0.086933
-1.414142
0.197869
-1.750790
-0.359522
-0.672107
2.313026
0.863890
-0.431173
-0.788893
0.919473
0.776814
0.838603
-1.307784
0.293281
-1.193957
-0.169275
-1.538391
1.875311
-1.309445
0.578475
-0.167315
-0.353947
0.457736
1.646561
1.948716
0.447956
-0.051428
0.456887
1.111484
0.430682
2.579676
-0.362284
0.264297
1.128507
0.588241
1.236087
0.711181
0.658195
1.071407
0.377489
-0.595260
-0.589134
-1.510137
-0.590048
-1.080327
0.310667
0.769939
-0.424440
-0.778143
-0.415281
1.199491
0.894859
0.912963
-0.210371
-0.145928
-0.238022
0.306235
1.005463
-0.378644
-0.122245
0.611080
-0.546656
1.639659
-0.318599
1.429207
-0.598609
-0.023240
-0.393610
-0.004575
1.067959
-0.745191
-1.629101
1.050818
-0.176363
-0.607844
0.817302
-0.705693
-1.058501
-1.594526
-0.517432
0.709599
-0.296290
-2.091124
0.943217
-3.044892
-0.438306
-0.445667
2.765844
0.367251
-0.840351
0.677111
1.287083
-0.253885
1.387216
-0.272277
0.640895
1.285811
0.394159
-0.547996
-0.375584
0.737356
-0.204391
-1.378785
0.771403
1.322126
1.613977
0.271099
0.877405
-1.311218
1.667409
-0.144090
-0.997955
0.124096
-0.710144
0.578336
0.114745
-0.067583
1.197563
-0.100661
-0.947153
0.832703
-0.903514
-0.066011
1.150938
-0.277592
-0.855608
-0.712764
1.450749
-0.109174
0.367615
1.315286
0.102449
0.321053
-1.108795
0.511507
-0.203533
-1.571979
0.520063
-0.556213
0.505283
-0.410425
-0.472819
1.207963
-0.759078
-0.565227
1.042498
-0.894257
-0.467466
-0.634842
1.172879
1.248929
-0.420346
0.093988
-0.220227
0.534697
-0.661426
0.213791
0.967909
1.333085
-0.523959
0.824421
-0.279706
-0.855608
2.525221
-0.903701
0.052864
-0.314876
0.220877
-1.936733
-0.698081
0.204397
-2.078256
0.560318
-1.098058
-0.299832
-1.483961
0.400797
0.462208
-1.373298
1.260798
-1.328083
-1.071458
0.516166
0.621843
-0.193319
0.826729
0.639936
-1.437168
-0.160176
1.075903
-0.485650
0.266162
-0.387965
-0.251370
-1.472965
-0.138993
-0.785655
0.352256
0.478153
-0.118512
-0.201248
2.077822
-0.809547
1.588609
0.108109
-0.353460
-0.606978
-3.397105
-0.641037
0.019865
0.186378
0.520053
-0.060669
0.189316
0.286578
1.429975
-0.333258
-1.928809
0.799222
-0.170739
0.815255
0.506100
-0.324693
1.821928
-0.039671
-0.886799
0.665115
0.456690
-0.798061
-0.269683
-1.189915
-2.230231
-0.972458
0.618317
-0.110540
1.042094
0.596421
-0.302738
-0.099468
-0.304215
-0.383738
0.173918
0.560072
-1.326156
0.534346
1.155598
-0.384622
0.686987
0.118384
0.091470
0.071175
-0.435929
-0.412497
-0.648621
0.939264
0.173727
-1.332853
-0.348643
-1.493369
-0.637940
-1.591349
-0.988558
-0.565589
0.505931
-0.564014
-1.402486
0.467710
-0.503885
0.000871
0.586310
-2.687503
0.535819
-0.036889
-1.758770
-0.121034
-0.726721
0.250599
-0.399278
0.716331
2.097818
1.863557
0.249348
-0.337888
-0.429014
-2.436964
-1.446346
-0.289993
-1.225671
0.550007
0.693915
2.465320
0.820913
-0.937090
-0.181651
-0.932711
0.945975
-1.050522
0.668403
0.656783
-0.644711
0.511396
-1.528582
-1.463149
0.420695
1.004422
1.265504
0.183086
-0.510388
-1.467287
1.501819
1.095023
-0.001090
-0.480181
-0.162428
-0.877990
-0.435832
-0.372272
2.591997
0.792801
1.647156
-0.076250
0.108245
-0.405816
-0.216789
0.668095
2.164991
0.829680
0.343618
-1.133829
0.065000
0.162312
0.557447
0.676296
0.236100
-0.872411
-0.637733
-0.929641
-1.220607
0.998326
0.896874
-0.695447
-0.589176
1.115381
-0.330771
0.444413
1.284574
1.389682
2.314699
1.844540
-0.862418
1.797920
1.392912
-0.958347
-0.419726
1.989708
-0.117390
1.366420
0.734518
-0.154074
0.940257
-0.917093
-0.295454
-1.452023
-0.556521
0.701198
0.828384
0.926431
-2.149929
-0.716983
0.064995
-0.197978
0.340121
-1.435714
0.405780
1.544352
-0.163809
1.413197
0.869980
1.548652
-1.306261
1.785107
-0.843963
-0.250657
0.367216
0.676595
0.459602
-0.483795
0.219672
-0.669406
1.339940
-1.096710
-0.198963
-0.770333
-0.236375
-0.199500
-0.297506
0.789833
-1.009900
-0.277660
-1.598130
-0.782801
-1.216425
-1.004122
0.299638
1.649193
-0.744856
0.590134
1.083542
-0.247529
0.341643
1.995701
0.726027
0.699119
-0.550277
0.840605
0.739310
0.154206
0.593925
-0.929792
-0.284439
-0.513271
-0.113057
0.724386
0.166907
0.375600
-1.352101
-1.012571
-0.397679
-1.426484
-0.978958
-0.187357
1.341899
-1.992221
0.621008
0.231739
0.655181
-0.709029
-0.267660
0.163829
0.578899
-0.022830
0.757688
0.334770
0.208073
-0.814971
-1.070450
0.471364
-0.079042
-0.074755
-1.864817
1.761534
0.752073
-1.875528
0.222350
-1.071844
-2.652683
0.028506
-0.707901
1.402778
-1.028962
-0.705637
1.228836
0.448523
1.317028
0.813614
0.465874
-0.933804
0.617563
-0.445054
-0.562493
-1.131946
0.180562
0.091613
-0.891326
-0.089324
0.977253
-0.810710
-0.541933
0.314788
-0.285907
0.540471
-0.664738
-0.672674
-1.121216
0.497356
-1.683286
-0.345523
-1.036470
-1.581877
1.977285
0.200308
1.366648
0.990039
0.043073
0.398413
-0.595485
-0.605578
0.049558
0.262133
-1.715554
-0.025568
-0.650781
1.259777
2.421415
-0.329590
-0.027758
-0.060494
1.272269
0.958375
0.510186
1.411768
-0.548922
0.288861
1.190472
-0.007332
-0.569098
-0.148428
2.230405
0.976509
-0.173595
-1.045423
0.203828
0.645488
-1.326766
-1.133088
0.455235
-0.126196
-0.293556
-0.635387
-1.125533
0.099520
-0.632068
-0.807736
0.795306
1.986008
0.003323
1.558281
1.144591
-0.565080
0.214121
0.913819
0.358086
1.683252
0.265088
-0.875943
-0.758165
0.624582
0.312553
-0.426032
-0.202630
0.787187
-0.580780
-1.013624
-1.213368
0.132998
-0.012495
-1.786007
0.780406
1.009588
1.175980
-0.759408
-1.206310
-0.377390
0.348337
-1.123384
0.075230
0.641070
-0.184746
-0.734045
0.265751
0.036082
-0.263442
0.403647
-0.418165
0.104087
1.753020
0.195034
0.098060
0.646786
0.165943
-0.952925
0.435027
1.640311
0.030581
-1.593581
-0.394396
2.164320
1.052837
0.051526
-0.714298
-0.149555
0.421497
1.065202
-0.200102
0.426293
0.601770
0.513231
-0.708351
0.122033
-1.116267
-1.291830
1.165918
-2.354918
-0.752759
0.322021
2.583970
-0.835926
-1.109906
0.193054
0.157390
0.094770
0.693321
-0.294300
-0.198204
-0.471647
0.612121
-0.211370
-0.132778
-1.688360
0.448127
-0.018159
0.736380
-0.129005
-0.729927
1.089049
-0.323805
0.779744
1.270293
-0.741626
-0.880632
-2.296203
-0.027507
1.649753
-1.740381
-0.752647
0.281998
0.463212
1.949034
1.095351
0.631588
0.777974
-0.259251
-1.542178
0.053279
0.969119
0.510581
0.455378
1.909803
-0.070038
1.775333
-2.074252
0.735307
0.104105
-0.417374
0.355083
1.162098
0.959175
0.977959
-0.533104
1.955137
-0.120313
-2.235105
-0.338799
-1.151358
1.900091
-1.035001
-0.101628
-1.126335
-1.275557
-0.966505
1.519498
-0.467290
-0.295441
0.359597
-1.462854
-0.677930
1.849382
-0.555467
-1.288739
0.872761
1.168011
0.340884
-0.053490
-0.736686
0.646161
-0.502724
-1.535504
-0.611719
0.521546
-2.358092
0.170125
-0.927161
-0.457175
0.129534
0.947282
0.063424
1.226171
0.178560
-0.156645
1.969375
-2.091323
-0.394370
-0.814752
0.887502
-0.979143
-0.297958
-2.017163
1.278898
0.314332
1.581097
-1.194301
0.838420
0.575047
0.831395
-0.718974
1.041956
-1.226907
-0.743403
-0.698082
-1.658289
-0.635219
-0.734756
0.413211
-0.659192
-1.932722
-0.925246
0.787716
0.455223
-1.082586
0.776431
1.083084
0.118218
0.890207
1.096918
0.294183
0.945301
1.224853
1.951878
-0.138995
-0.118178
1.266787
0.498335
1.906829
-2.330354
0.428256
-0.472386
-0.661653
-1.749071
0.666510
-0.752675
1.344564
0.884306
-0.284249
0.093261
0.699800
-0.055851
0.627740
-0.013851
0.958092
1.784831
0.394326
1.096459
2.058442
1.157988
-0.571554
-1.068170
0.471970
0.133724
1.240441
-0.081891
1.580723
-0.350751
1.769703
-0.121782
-0.510764
1.346700
0.246822
-0.369899
-0.920610
-0.000900
-1.211160
-0.495876
-1.884756
0.148230
0.301512
0.402598
1.162510
1.175863
1.943278
0.768516
-0.875584
-0.217285
2.192074
0.615571
-1.062933
2.528249
0.618386
0.918687
-0.315622
-0.831117
0.602109
0.616948
0.144180
-1.042323
0.810172
1.289767
0.514720
0.703772
-1.280666
-0.229726
-0.435337
0.510401
-0.921535
-0.897276
1.155634
1.302163
0.409673
-0.442178
1.825388
-0.175112
0.829859
-1.433466
2.783109
0.032001
1.033622
0.881544
0.523416
-0.051857
-1.865758
0.188475
-0.580991
-0.716556
-1.028974
-0.671265
1.395235
0.999073
-0.636405
-0.074296
0.072138
0.125009
-0.073767
2.686268
-1.091490
0.987487
-0.870233
0.527155
1.585078
1.685368
0.893262
0.992108
0.623258
2.071975
1.461809
0.836390
-0.571533
0.847833
-0.341543
0.057217
1.030222
-0.050206
-1.422625
-1.026644
-0.201413
-0.620670
1.248752
0.481225
1.806330
0.395233
-0.217052
-0.478882
0.450863
1.023017
0.445426
-0.079572
1.020225
1.788132
0.174914
1.891944
0.239356
0.397161
-0.128231
0.060944
-1.167021
0.407190
-1.414561
-0.596292
-0.035179
0.309112
-0.175628
-1.382897
-1.277833
-0.696726
-0.031848
-0.145437
0.283673
0.874062
0.393126
1.398753
0.546699
0.167566
0.893058
2.477947
-0.214156
-0.756271
-1.104525
-0.871700
0.391811
0.591409
0.718959
0.525451
-2.686803
0.461913
-0.555567
-1.309064
-0.383304
-1.720529
0.324029
0.497917
-2.225531
2.664494
0.795633
0.030955
0.424150
-0.064368
-0.106592
-1.017264
-0.611032
-2.523659
1.629206
0.829220
2.298733
-1.866824
0.724608
0.175852
1.273337
0.485780
0.045451
0.561908
1.151031
1.049406
-0.406275
-0.401818
-0.751277
0.195174
-2.554892
0.759604
0.501890
-0.540174
0.323717
-1.068708
-0.274625
0.971832
-0.553797
0.319348
0.347577
-2.102154
1.223319
-0.706897
1.629095
0.128744
0.425114
-0.832719
-1.516037
0.316310
1.481862
-0.408802
-0.092692
0.678875
0.099037
-0.203660
-0.016205
1.608619
1.472837
0.527484
-1.413304
-0.827953
-0.085424
-0.586943
0.945833
1.777570
1.794383
-1.630463
-0.663637
-0.605075
-0.093881
1.480552
0.369024
0.532173
0.059698
-0.913391
-0.248776
0.340285
0.705925
1.101762
0.382641
0.544884
1.440480
2.427097
-0.622217
1.106702
0.204423
-0.673440
0.263723
-0.318819
-0.305445
-0.307102
0.834133
-0.414880
-1.679361
1.730756
-0.698864
-0.732102
-1.220564
-2.320276
0.861672
0.073873
1.020603
-0.399709
-0.109549
-1.401137
0.143486
-0.928816
-0.151939
1.000687
0.313545
0.032821
0.192539
-0.973999
0.940003
-0.730661
-2.854909
-0.255874
-0.504259
-0.639492
-0.206093
-0.198644
-1.621620
0.390059
1.987984
-1.131609
0.254258
-0.191059
0.664293
-1.324530
-1.524715
-1.498884
-0.324339
1.630511
0.258183
-1.551436
0.265896
-0.544444
1.617721
-0.498392
1.715677
-1.531162
-1.060871
-0.792166
-0.341015
-0.163472
-0.253792
0.460640
-1.087797
1.394738
-0.673795
0.087213
0.446460
1.458963
-0.497752
0.270221
2.166389
-1.788971
0.346403
-2.305144
0.728351
-1.453606
-0.141556
-0.731835
-1.731201
0.585253
1.488681
-0.623196
0.449511
-0.018076
-0.397366
1.669087
-1.308172
0.368646
-0.075115
-0.525748
-0.155858
1.838257
-0.301343
0.393500
-1.776222
1.134210
0.447973
0.039819
0.437466
-0.889511
0.246552
-0.780150
-1.070567
-1.810515
-2.270812
0.069410
-1.458891
-1.749648
0.019676
0.822655
-1.718729
1.009441
0.122568
0.779433
0.931748
1.445907
-1.083822
-0.377032
1.294461
0.349731
-0.057413
0.702402
-0.827593
0.152129
0.324933
0.672457
1.919168
1.484144
0.550693
0.508956
-0.004896
-1.051321
-0.390034
-1.456938
-1.248119
-1.666389
-0.777884
-0.231006
-0.291762
-0.442337
1.477539
-1.728971
-0.226375
0.213209
-0.391970
0.075823
0.833652
-1.377456
-0.588095
1.449469
-0.849954
-0.601689
0.670056
0.335946
-0.344090
-0.612273
0.303108
0.391481
2.389209
1.967330
0.680664
-2.090698
-2.271328
0.599158
-1.013173
-2.176851
0.084179
0.573389
1.693480
-2.326845
0.159273
-0.405810
-0.510449
-0.431838
-1.053061
-0.259551
0.645510
-1.001902
-1.609528
0.240506
1.135273
0.057919
1.277158
0.678255
2.255039
3.050526
2.104353
1.139625
-0.319229
-1.030559
0.112720
-1.307218
-2.920651
-0.862523
-1.187797
-0.731794
1.384923
-0.324568
-0.188343
-0.892399
0.343209
1.124132
0.152970
-0.097041
2.626049
2.393139
1.367233
-2.652089
1.736655
1.749351
-0.206852
0.508949
0.868007
1.146320
1.761779
1.002111
1.000507
1.099203
-0.915355
-0.120079
-2.375153
-2.424075
-0.486745
-1.154064
0.281714
0.724464
1.236421
-0.194646
-1.848780
-0.126808
2.639127
0.574797
3.236737
2.686924
0.376832
0.454663
-1.044035
0.933070
-1.132928
1.526561
1.364560
0.134189
1.889744
2.058618
1.171039
0.102133
0.370622
0.984514
-0.266480
-0.723579
-1.362912
-1.217431
-0.974729
-0.618542
-0.344403
0.556461
-0.515898
0.361096
-0.079007
-1.151959
-0.016885
0.344912
1.749655
-1.225150
-2.259174
-2.004565
0.872267
-0.437003
-1.311558
1.344229
2.107158
0.278348
-1.759455
0.631022
0.189474
0.812804
0.560454
0.289357
-0.597907
0.909222
-1.109604
1.373650
-2.930053
-1.844425
-1.024606
1.037845
0.202308
0.287586
-0.874458
-1.717745
-0.598240
0.963628
1.320190
-0.211617
-0.637500
-0.016032
1.275580
0.860253
0.636844
0.227639
0.442352
1.271104
0.927078
-2.029337
0.160506
-0.376027
-0.126726
-0.499924
-1.227283
0.188772
-0.981427
1.669448
-1.014297
-1.050437
2.180282
3.646785
0.314437
-0.978093
0.363243
-0.722605
-1.757995
-0.516994
-1.026844
-0.350898
0.105268
1.316861
0.492601
1.687276
-0.259246
1.039390
-0.626710
-1.187176
-0.185658
-1.125112
0.084765
-0.997367
-0.454667
0.287364
0.577977
0.161037
-1.418839
-0.543385
0.411229
-0.405698
0.859260
-1.461786
-1.131445
0.191800
-0.206906
-1.589068
-3.511830
-2.796599
0.719265
0.581028
1.155466
0.707934
-0.327716
-0.399614
0.082452
0.157859
-0.215370
1.210088
-0.709062
0.787924
0.435667
-1.723128
-0.923721
0.278009
0.345059
0.860444
1.668057
-1.204448
-0.103706
-2.095180
-3.306132
-1.466747
-2.683323
-0.795161
0.379995
0.161999
-0.367742
1.623513
1.494359
0.450009
-0.195880
0.471468
-1.746839
0.508268
-1.813966
-0.080211
0.267013
-0.771285
-1.801025
-0.137277
1.128235
2.132902
-0.112543
0.176241
-2.034383
-1.998619
-2.036116
-0.684598
-1.638469
-0.271087
-0.056788
-3.168802
1.170665
-0.235056
-0.140320
1.212081
-0.373538
-1.038024
0.136914
-0.193145
-1.071534
-0.290332
-0.160501
-0.976055
0.622218
-0.241165
-0.762111
0.837944
-0.794810
-1.068674
-0.133563
-1.101856
-0.734838
-0.213675
0.688317
0.037185
-2.119902
-1.122446
-1.080867
0.393988
-0.484779
1.361306
0.838695
-1.214768
-0.680160
-1.070211
-1.410367
-1.394892
0.791750
0.318335
-0.616426
-1.399640
-1.956662
0.193683
-0.064489
1.266099
1.430415
-0.498914
0.449634
0.119715
-0.133679
0.526598
0.255157
-1.086836
-1.206530
-1.784547
-2.340325
-0.800764
1.451522
0.788200
-0.403740
0.186923
-1.404349
-0.461098
0.343053
-0.500614
0.695592
0.101858
0.213462
1.381477
-1.033627
-0.284930
-2.592324
1.039608
-0.019397
-0.688548
0.521170
1.213351
-0.617627
1.247583
0.572260
-2.202517
-1.004351
-0.930765
-0.782086
-0.124621
1.002751
-0.728469
0.176181
0.299054
-0.338934
-1.368059
-0.881401
-0.655005
1.539955
1.814632
-0.764696
0.938293
-0.454253
1.209829
0.565422
-1.087839
-3.513800
-0.058781
0.796375
-0.458665
-1.133344
1.418159
-1.268688
-0.563545
-0.080697
0.990880
0.512681
-2.119177
-0.212127
-0.867675
-0.714785
0.596867
0.919091
0.248900
0.046802
-0.369498
2.757836
0.594673
-0.821115
0.067121
0.784123
2.002410
-1.238510
-0.487057
0.496840
-1.011167
0.304525
0.030738
-0.979006
-0.718797
0.247430
-2.020097
-1.727637
-3.044321
-2.089228
-1.166952
-1.935746
-1.771736
-0.361448
-1.495465
0.929582
0.319230
0.852105
0.489024
0.013487
0.387067
0.000534
0.267803
0.449563
-0.722068
-0.866960
0.534875
-0.181736
0.687377
0.023135
-1.458343
-0.893057
0.174558
-0.063490
-1.740657
-2.491662
-0.421486
-1.535989
0.937856
-1.445531
-0.338810
0.945088
-1.037499
-0.029418
0.221226
-1.844380
1.366476
-1.461288
0.262726
1.222444
0.163967
-0.322465
-1.372903
0.561027
-0.565089
2.133835
-0.070505
-1.205565
-0.222462
-1.171846
0.051058
0.359780
0.144143
0.214520
-1.752435
-0.377977
-0.731296
-0.380451
-1.223638
0.532927
-1.363987
-1.419083
-0.209617
-0.501350
1.124287
-0.630300
-0.005102
-0.127999
-1.177412
-1.448398
0.229183
0.896116
-0.897921
0.647596
-0.543215
-0.934251
0.133903
-0.454486
1.273885
-0.926604
0.900132
-0.483943
0.007138
-1.952477
-1.797648
-1.746962
-0.634461
-1.622649
-0.223855
0.345778
-0.341699
1.507383
1.451207
-1.188251
-3.148300
1.618190
-0.465114
1.456464
-1.653595
-1.002684
-0.073851
0.233864
-0.663998
-0.435672
-0.139014
0.042103
0.575207
1.003812
-0.516364
0.769412
0.854517
-0.926889
-0.891153
-0.455352
0.769643
0.234896
0.624234
-0.864955
-0.344658
-2.288733
0.384449
1.224903
0.637326
-1.373491
-0.660454
0.004075
0.581346
1.604423
0.071105
-0.238019
0.964159
1.031942
0.757372
-0.005650
1.484589
-1.062436
-0.441403
-2.340991
1.229995
0.696057
-0.385222
0.829672
0.133275
-0.312800
-0.946562
-0.951837
-1.727272
0.782525
-0.307682
0.173841
0.890047
-0.864654
0.877343
-0.085207
-0.281130
-0.000660
0.780364
-1.642432
-1.152162
-0.249124
-1.221770
-0.509405
-0.409247
0.662373
-0.665429
0.164135
0.369297
-0.668978
2.434236
2.327014
-0.258059
-0.188193
0.467228
-1.424419
0.946895
-1.168077
0.133044
-1.231972
-1.097824
0.152413
-0.335471
1.038743
-0.051942
0.593492
-0.083874
0.120757
-1.659009
-0.616499
0.436409
-0.863047
-0.451052
-0.711743
0.143981
0.443524
0.703032
-0.177810
-1.046078
0.188820
0.028950
0.084835
1.001572
1.366500
0.983391
1.503537
-0.967698
0.393736
-0.702617
-0.127921
0.665108
-1.165405
1.156738
-0.056361
0.038607
2.386860
-0.523055
-0.681170
0.626076
1.070348
-0.185353
1.116235
-0.254630
-0.052693
-1.015279
0.222915
2.245367
-0.513094
0.286255
-0.860649
-1.167743
0.658539
-0.851526
0.604947
-0.642994
-1.748299
0.818430
0.123075
0.304493
-1.752892
-1.778931
-1.213205
0.390323
-0.494641
0.001310
-0.985289
1.850819
-0.521215
0.136071
0.615827
1.071487
0.226873
-0.221018
-1.232283
-0.871923
-0.402576
0.051952
-0.053924
1.284503
-0.801021
-0.898915
-0.642906
0.595310
-0.119758
-0.668493
-0.637442
-0.593541
0.164068
0.109939
-2.631192
0.174657
-0.556253
-0.491312
0.624124
0.264238
0.052122
2.358238
-0.129570
0.805615
-0.758423
1.209243
2.088510
-1.286885
-0.601797
-0.631713
0.075653
0.626862
0.061140
0.369972
-0.202119
1.797004
-0.333550
-1.312571
-0.542583
0.732895
-0.387611
-0.520380
1.905317
1.055260
1.612304
0.071448
1.098424
1.251670
-2.280930
-0.431635
-0.213711
-1.529069
-1.169910
1.671388
1.141272
-1.833042
-0.421655
0.626798
-1.105639
0.818540
-1.723268
0.341334
0.257982
-0.932382
0.150675
0.921632
0.714804
0.741199
-0.116423
-1.262039
-0.803931
-0.468860
-1.269830
-0.326646
-0.623641
0.370981
-0.881025
-2.035405
-2.076440
-1.774445
-1.153905
-1.188805
-1.818417
0.001257
-0.294202
-0.845536
0.353312
0.461365
1.024389
-0.986471
-0.138543
-1.672799
-0.829124
-1.635108
-0.048458
0.312754
0.356037
0.116766
0.241419
-0.834469
1.485576
-0.928980
1.585862
0.766261
-0.395103
-0.420065
0.206593
-1.297461
0.977589
-0.836108
-0.223006
0.019050
-0.048345
0.153509
-1.454362
-1.557322
-0.133769
0.038768
1.580394
-0.313332
-0.497259
0.446211
-0.450543
0.003286
-0.051501
-0.519768
0.312113
0.727096
0.978274
-0.256154
-0.205043
0.104998
-0.812512
-1.985874
-1.066431
-0.214113
0.014097
-0.396009
-0.169540
-0.680876
-0.720154
-0.634458
0.369847
-1.492803
0.482817
-0.603736
1.843155
0.905294
0.157139
1.186183
0.158379
-0.069301
-0.711993
2.575709
0.034629
-1.001174
-1.556547
-1.175648
-1.262124
-0.489752
-1.208796
0.332608
0.166667
-1.096408
-0.008079
0.405497
-1.138100
-0.959404
-0.803594
-1.123142
-2.225452
1.159657
0.272853
-0.394386
2.436408
-0.106366
0.783158
1.370586
0.251585
-0.333193
0.312137
1.155812
-0.041603
-1.353379
0.824515
-0.900692
1.093544
-1.607501
0.661519
0.231795
-1.228753
-0.870560
-2.894679
-0.852141
-0.027332
0.886820
-0.017597
1.043296
1.177634
-1.024205
-1.629008
-0.038796
0.623105
1.143814
1.456011
0.970525
-0.524777
1.021194
0.452142
0.546614
0.432051
-0.262789
-0.108606
-0.135366
-1.835886
-0.351583
-0.438861
-0.129750
-0.150627
-2.347587
-0.776556
-1.090842
-0.962304
0.281211
1.155472
0.793019
-1.337252
0.142699
0.654995
1.956330
-1.040641
-0.363117
-3.633464
0.509799
-0.238043
0.167546
0.111042
1.125732
0.802446
0.348998
0.215715
0.112520
1.789280
-0.555849
-0.142711
-0.324466
-1.018708
-1.749264
1.205394
0.078768
-0.205848
-0.204802
0.075900
-0.055090
-1.506492
-1.111330
0.313864
-0.025656
1.855342
0.418111
0.593275
0.891613
0.620287
2.177646
-0.317233
1.886150
0.978001
-0.407729
0.917430
-0.022559
0.034076
-0.346735
1.456171
-0.109730
0.432065
0.368559
-0.091497
-0.865215
-1.365193
-0.169251
-0.858813
-0.888968
0.300341
-2.964519
-1.218638
0.808563
0.491861
2.087482
0.349306
0.756632
1.104076
0.138574
-1.048841
-0.054484
0.650905
-0.854837
-0.357981
0.356914
-0.875930
2.004752
-1.706455
0.582391
-0.070036
0.698872
-0.117992
0.812030
0.728744
-0.390105
0.195290
-0.369481
-3.318082
-5.239928
-2.431942
0.416090
-0.758729
1.447314
1.040411
0.408172
0.275294
-0.698096
1.262360
-0.320315
-0.770019
1.235991
-1.320234
0.478731
-0.917450
-1.236776
-0.121559
-0.370311
1.191117
0.557597
-0.894931
1.063650
-0.216705
0.613972
1.272426
0.812245
-1.000339
-2.568199
-0.856909
-2.179098
-0.384828
1.161537
-0.277706
0.693176
0.660567
1.986041
-0.828759
0.665494
1.733030
0.176760
-0.728388
0.519477
-0.376048
1.198836
0.129458
1.987090
1.479276
0.194599
1.840016
1.699919
0.751383
-1.113489
2.089612
0.627880
-1.040476
-1.689311
-3.779485
-2.956919
-1.242570
-0.744815
0.882906
0.446525
1.255807
-0.674122
1.014420
3.598856
-0.477209
-1.683760
1.074625
-1.341287
0.217585
0.634999
-0.649281
0.906910
2.180280
-1.788167
-0.351901
1.561418
-1.119999
0.488969
-0.706806
0.652972
-0.551863
0.125170
-4.139058
-3.719624
-1.244906
-1.488907
0.703454
-1.055631
-0.852305
0.005840
0.298907
-0.304295
-1.113976
-1.394049
0.172061
-0.849997
-2.286447
0.220099
0.809919
0.580599
0.658485
1.326742
1.689153
0.821917
1.893759
2.616307
0.519770
0.456437
-0.095661
-1.208984
-1.900892
-1.715924
-1.780216
-1.405926
-0.701054
0.308193
-0.478573
-0.405603
-0.259871
1.105743
-3.059743
0.924558
-0.044417
-0.475388
0.237073
0.414258
0.401061
-0.643923
0.903634
-1.782572
1.485297
-0.544618
0.001326
0.963369
2.150043
2.379583
0.518832
0.106829
0.789723
1.050223
-1.593267
-1.600906
-1.310959
-0.455894
-0.021300
-1.127160
-0.113198
-0.741324
-2.141319
0.195086
-0.464313
0.110352
0.289654
1.347012
0.333978
1.634901
1.058661
-0.229947
0.253520
0.980800
-0.880197
0.663056
1.683451
1.623479
2.140031
0.032587
1.351657
-2.282458
-0.665447
0.204386
-2.069287
-0.830665
-0.096739
0.208174
-1.155903
0.284968
0.963130
0.722157
0.303198
-2.081136
-0.506620
-0.473027
0.523036
0.159238
2.022104
-1.727315
1.548301
1.637079
-0.349803
0.771632
-0.417150
1.778181
-0.040020
-0.224322
1.003586
0.136854
0.820160
-1.158496
-0.135634
-0.380422
0.774893
-0.203385
-1.147152
-0.114398
-0.093165
-0.161516
-1.075329
-0.952775
-0.725818
0.974578
0.321298
0.664389
-0.508402
2.734207
-0.151217
-2.046093
-0.413772
1.395782
-0.621203
0.329386
-0.209331
-0.165424
-0.172650
0.465815
-1.377624
0.656961
-0.895141
-0.403506
-0.542100
-1.558991
0.127126
-1.325065
-0.038401
0.145109
0.264191
0.035132
0.861612
0.641580
-1.188449
0.320810
-0.022344
-0.845153
0.908329
0.929861
0.891008
-0.491067
-1.190109
0.256328
0.983990
3.516199
0.552857
-1.034364
-0.181454
-2.175307
-0.146719
-0.694775
0.803027
-0.603405
0.212120
-0.903891
-0.326990
2.273653
0.051702
0.419445
-1.198510
-1.892751
0.560551
-0.157816
-1.940844
-1.687666
-0.911475
-0.393782
-0.284092
1.046070
0.983640
0.328019
2.978717
1.701777
1.983818
-0.010616
0.298103
-1.727351
-1.732747
-2.029152
-1.292146
0.357976
0.173562
0.841651
1.445729
-1.232466
1.394655
1.443316
1.128839
-0.134278
0.299514
0.421032
-0.939428
0.785488
-1.410059
-1.551479
0.462203
-0.746974
0.827231
-0.482656
0.521857
1.019757
1.221850
2.067816
-1.747135
0.978591
0.173483
0.150093
0.772242
0.116949
0.257484
-0.181085
-1.090494
1.409084
-0.537068
-0.456475
-0.660058
-0.676524
0.040543
0.243379
-0.654902
-0.466882
-0.611280
-0.307561
0.371652
-1.023942
0.117044
-0.814088
-1.113458
-1.523486
-0.806516
1.024135
-0.631748
-1.376291
0.123566
-1.591202
-2.340358
-0.081402
-0.149109
0.041509
1.588356
0.900688
-0.318793
-1.087787
0.610698
2.341980
0.898651
0.699864
0.145172
-0.784006
-0.606560
-1.007608
0.208947
-1.675939
0.329816
-1.233617
0.295200
-0.540006
-1.093358
-2.395103
-0.542041
-1.266204
-0.566967
0.226332
-0.468300
1.442373
0.723893
0.313985
-0.765075
0.754394
0.364819
1.651533
0.453335
-0.635491
0.538518
1.498443
0.419742
-0.983350
0.002404
0.962785
1.167453
0.468655
-0.520493
-0.324679
0.477701
0.305964
0.708265
0.380994
-0.076373
1.512955
-1.720859
-0.889759
-0.973770
-0.183343
1.097420
0.214536
-0.604849
0.687784
1.834170
0.525199
-0.492350
0.410384
1.145322
1.035704
-0.025944
0.430081
0.885589
0.361306
-0.538298
-0.730613
0.107939
0.157737
-1.393640
0.742856
-0.391588
0.014540
0.765367
0.652450
-0.097642
0.040630
-0.396079
0.567947
-2.060374
0.235494
-0.271981
-0.068941
-0.694665
-0.172112
-1.066723
-0.934538
0.471044
0.248225
0.021694
-0.036177
0.335090
-0.983457
0.956634
1.375998
1.001779
-2.469424
0.584379
1.016687
-0.244513
0.551485
-0.586692
-2.088904
-0.221283
0.652319
2.064452
0.775430
-1.857642
0.474749
1.146151
0.467317
0.079247
-0.444733
0.506770
0.382707
0.580507
-0.032714
-1.594780
1.579357
1.080920
-0.747291
0.455006
0.791865
-0.128100
0.141392
1.520315
0.611941
0.420492
-1.595713
1.354330
1.197191
-1.952469
-0.107723
1.083042
-1.793907
1.306484
0.425267
-0.185782
0.302232
0.082393
-0.156346
1.403154
-0.515800
-1.578604
0.457531
0.653221
-1.646601
-1.243865
-1.319742
0.671966
0.362124
0.247751
-1.030421
0.512668
-0.215959
-0.971623
0.289955
0.791371
0.964350
0.012694
0.487315
0.207088
0.567861
0.997532
1.227414
-0.694495
0.431249
2.112190
0.041027
-0.639627
0.592936
0.200655
-0.770623
-0.592159
1.739045
0.332671
-1.083814
-0.660593
-2.162482
-0.644698
-2.580410
0.068102
-2.451047
-1.001672
-1.567239
1.989236
2.360428
0.930257
1.181540
0.740907
-0.170534
-0.467719
-0.671723
0.218285
0.522605
-1.232632
-1.153232
-1.342464
0.501934
0.075766
0.438725
-1.020891
0.917430
-1.137450
-0.368447
2.187692
-2.507741
0.176802
-1.762327
-1.838925
-0.560343
-0.858644
-0.360307
-1.520197
-2.015036
1.072801
-1.902249
-2.252941
2.060391
0.383231
1.568156
-0.380425
0.365854
1.312255
-2.822331
-2.043822
-0.837506
0.919797
-2.333788
0.487524
0.218110
0.096562
-0.531496
0.175605
-1.071608
0.758268
-0.667120
1.430839
-0.564858
-1.352446
-0.943658
-0.461232
1.377099
0.582706
-0.757834
-0.056706
-0.050276
0.056879
-0.826324
1.269136
0.435695
-1.041581
0.330654
0.374377
-1.388375
0.876495
1.236872
-2.633300
-0.292203
1.113868
0.312037
2.802638
0.522552
0.074326
-0.530292
0.411558
0.923030
-0.097371
0.998047
0.094193
0.587038
0.500752
0.236031
-0.097091
2.252922
-0.034896
1.198094
-0.715406
1.715680
0.696107
-0.758246
1.334563
1.377326
-0.536325
-0.149975
0.013688
0.353393
-1.038683
1.143481
0.325964
0.593620
1.516375
-0.074190
-0.522100
0.743832
0.774003
0.856250
-0.084154
0.662677
0.141864
0.517148
-0.891394
-0.060194
0.799455
0.731401
-0.634035
-0.941810
0.619756
0.008964
1.436653
-1.409313
1.902458
-0.531260
-0.006758
-1.736128
-0.705845
0.650290
-0.787165
0.778914
2.148071
-0.434544
0.724149
1.086336
2.061948
-1.215757
0.760240
0.604986
-0.015800
2.065385
-1.319131
1.106087
-0.698780
-0.968336
-0.884790
0.866827
0.207769
0.084847
-0.901274
-0.141721
-0.530551
1.424263
1.407375
1.777909
-1.273057
-0.216544
0.989398
-0.295231
0.092840
-0.599024
0.917307
-0.574769
1.267255
-0.319334
-0.282513
-0.569870
0.922542
-1.393562
-0.538298
0.119026
-0.726218
1.468640
0.784594
-0.194366
1.295922
0.535019
0.900151
1.477266
-0.844396
1.175716
-1.018030
0.798163
0.191919
1.540228
-0.916026
0.785290
-0.816915
0.908766
-0.029390
-1.885276
1.042979
-0.395191
0.825205
-0.299299
1.371505
0.321401
-1.717289
